{"learner":{"attributes":{"scikit_learn":"{\"_estimator_type\": \"classifier\"}"},"feature_names":[],"feature_types":[],"gradient_booster":{"model":{"cats":{"enc":[],"feature_segments":[],"sorted_idx":[]},"gbtree_model_param":{"num_parallel_tree":"1","num_trees":"300"},"iteration_indptr":[0,1,2,3,4,5,6,7,8,9,10,11,12,13,14,15,16,17,18,19,20,21,22,23,24,25,26,27,28,29,30,31,32,33,34,35,36,37,38,39,40,41,42,43,44,45,46,47,48,49,50,51,52,53,54,55,56,57,58,59,60,61,62,63,64,65,66,67,68,69,70,71,72,73,74,75,76,77,78,79,80,81,82,83,84,85,86,87,88,89,90,91,92,93,94,95,96,97,98,99,100,101,102,103,104,105,106,107,108,109,110,111,112,113,114,115,116,117,118,119,120,121,122,123,124,125,126,127,128,129,130,131,132,133,134,135,136,137,138,139,140,141,142,143,144,145,146,147,148,149,150,151,152,153,154,155,156,157,158,159,160,161,162,163,164,165,166,167,168,169,170,171,172,173,174,175,176,177,178,179,180,181,182,183,184,185,186,187,188,189,190,191,192,193,194,195,196,197,198,199,200,201,202,203,204,205,206,207,208,209,210,211,212,213,214,215,216,217,218,219,220,221,222,223,224,225,226,227,228,229,230,231,232,233,234,235,236,237,238,239,240,241,242,243,244,245,246,247,248,249,250,251,252,253,254,255,256,257,258,259,260,261,262,263,264,265,266,267,268,269,270,271,272,273,274,275,276,277,278,279,280,281,282,283,284,285,286,287,288,289,290,291,292,293,294,295,296,297,298,299,300],"tree_info":[0,0,0,0,0,0,0,0,0,0,0,0,0,0,0,0,0,0,0,0,0,0,0,0,0,0,0,0,0,0,0,0,0,0,0,0,0,0,0,0,0,0,0,0,0,0,0,0,0,0,0,0,0,0,0,0,0,0,0,0,0,0,0,0,0,0,0,0,0,0,0,0,0,0,0,0,0,0,0,0,0,0,0,0,0,0,0,0,0,0,0,0,0,0,0,0,0,0,0,0,0,0,0,0,0,0,0,0,0,0,0,0,0,0,0,0,0,0,0,0,0,0,0,0,0,0,0,0,0,0,0,0,0,0,0,0,0,0,0,0,0,0,0,0,0,0,0,0,0,0,0,0,0,0,0,0,0,0,0,0,0,0,0,0,0,0,0,0,0,0,0,0,0,0,0,0,0,0,0,0,0,0,0,0,0,0,0,0,0,0,0,0,0,0,0,0,0,0,0,0,0,0,0,0,0,0,0,0,0,0,0,0,0,0,0,0,0,0,0,0,0,0,0,0,0,0,0,0,0,0,0,0,0,0,0,0,0,0,0,0,0,0,0,0,0,0,0,0,0,0,0,0,0,0,0,0,0,0,0,0,0,0,0,0,0,0,0,0,0,0,0,0,0,0,0,0,0,0,0,0,0,0,0,0,0,0,0,0,0,0,0,0,0,0,0,0,0,0,0,0],"trees":[{"base_weights":[-6.163731E-2,-1.2299774E0,1.3323627E0,1.743323E-1,-1.6222718E0,9.43699E-2,4.9679056E-1,-8.0000006E-2,1.1858696E0,-6.229272E-1,-1.7553477E0,1.2822232E0,-2.7710044E-1,9.777775E-2,7.6722264E-2,-7.647059E-2,7.621113E-1,-1.8131063E0,3.712035E-3,-1.6409792E-2,8.16519E-2,8.870728E-1,-8.095238E-2,5.3579178E-2,-5E-2,5.3579178E-2,3.712035E-3,3.712035E-3,-9.372448E-2,-2.3801655E-2,7.759162E-2],"categories":[],"categories_nodes":[],"categories_segments":[],"categories_sizes":[],"default_left":[0,0,0,0,0,0,0,0,0,0,0,0,0,0,0,0,0,0,0,0,0,0,0,0,0,0,0,0,0,0,0],"id":0,"left_children":[1,3,5,7,9,-1,11,-1,13,15,17,19,21,23,-1,-1,25,27,-1,-1,-1,29,-1,-1,-1,-1,-1,-1,-1,-1,-1],"loss_changes":[1.604261E2,2.9789589E1,1.9901756E1,2.4508558E1,4.487114E0,0E0,1.2081776E1,0E0,3.111085E0,9.302969E0,3.9897537E0,6.045622E0,1.7901985E1,4.4434996E0,0E0,0E0,6.083156E-1,4.2407913E0,0E0,0E0,0E0,6.438076E0,0E0,0E0,0E0,0E0,0E0,0E0,0E0,0E0,0E0],"parents":[2147483647,0,0,1,1,2,2,3,3,4,4,6,6,8,8,9,9,10,10,11,11,12,12,13,13,16,16,17,17,21,21],"right_children":[2,4,6,8,10,-1,12,-1,14,16,18,20,22,24,-1,-1,26,28,-1,-1,-1,30,-1,-1,-1,-1,-1,-1,-1,-1,-1],"split_conditions":[1.9605084E-1,-1.8798651E-1,-2.0719886E-1,-1.1763726E-1,-1.2050949E0,9.43699E-2,-5.68522E-1,-8.0000006E-2,-4.244669E-1,-6.463972E-1,1.1264694E0,-1.0283499E0,1.05412165E-2,-6.026268E-1,7.6722264E-2,-7.647059E-2,-7.3763025E-1,-2.6722505E0,3.712035E-3,-1.6409792E-2,8.16519E-2,-1.7318274E-1,-8.095238E-2,5.3579178E-2,-5E-2,5.3579178E-2,3.712035E-3,3.712035E-3,-9.372448E-2,-2.3801655E-2,7.759162E-2],"split_indices":[8,7,7,9,17,0,1,0,8,0,1,10,7,4,0,0,1,6,0,0,0,0,0,0,0,0,0,0,0,0,0],"split_type":[0,0,0,0,0,0,0,0,0,0,0,0,0,0,0,0,0,0,0,0,0,0,0,0,0,0,0,0,0,0,0],"sum_hessian":[9.649532E1,5.256075E1,4.3934578E1,1.159813E1,4.0962616E1,2.5642523E1,1.8292055E1,4E0,7.5981307E0,5.4813085E0,3.5481308E1,8.7523365E0,9.53972E0,2.1542056E0,5.443925E0,3.25E0,2.2313085E0,3.4404205E1,1.0771028E0,1.5771028E0,7.1752334E0,5.2897196E0,4.25E0,1.1542056E0,1E0,1.1542056E0,1.0771028E0,1.0771028E0,3.3327103E1,1.8271028E0,3.4626167E0],"tree_param":{"num_deleted":"0","num_feature":"18","num_nodes":"31","size_leaf_vector":"1"}},{"base_weights":[-7.2264366E-2,-1.2708626E0,1.1638913E0,1.8402122E-1,-1.5569599E0,1.669339E0,-7.911817E-2,-7.983921E-1,6.6186726E-2,-1.5984818E0,-7.087362E-3,6.317549E-1,9.247326E-2,1.0411967E0,-1.3770682E0,-7.217737E-2,2.3716785E-2,-1.108742E0,-9.2050195E-2,5.736143E-2,-2.4810044E-2,-2.5592247E-2,7.59185E-2,-8.087525E-2,-6.957698E-3,6.538781E-2,-1.4836555E0,-8.8406324E-2,1.3724557E-2],"categories":[],"categories_nodes":[],"categories_segments":[],"categories_sizes":[],"default_left":[0,0,0,0,0,0,0,0,0,0,0,0,0,0,0,0,0,0,0,0,0,0,0,0,0,0,0,0,0],"id":1,"left_children":[1,3,5,7,9,11,13,15,-1,17,-1,19,-1,21,23,-1,-1,25,-1,-1,-1,-1,-1,-1,-1,-1,27,-1,-1],"loss_changes":[1.5033731E2,2.171724E1,3.1533875E1,1.1531552E1,2.30793E0,5.480896E0,2.3831966E1,5.322404E0,0E0,2.92408E0,0E0,4.512241E0,0E0,7.325886E0,2.0270061E0,0E0,0E0,1.6761805E1,0E0,0E0,0E0,0E0,0E0,0E0,0E0,0E0,7.802883E0,0E0,0E0],"parents":[2147483647,0,0,1,1,2,2,3,3,4,4,5,5,6,6,7,7,9,9,11,11,13,13,14,14,17,17,26,26],"right_children":[2,4,6,8,10,12,14,16,-1,18,-1,20,-1,22,24,-1,-1,26,-1,-1,-1,-1,-1,-1,-1,-1,28,-1,-1],"split_conditions":[2.3802266E-1,-2.3183009E-1,-6.7006187E-3,-2.0468701E-1,1.1264694E0,-1.0382255E-1,-5.185075E-1,-1.0967222E-1,6.6186726E-2,-5.0464827E-1,-7.087362E-3,-2.424534E-2,9.247326E-2,-8.244595E-1,2.1602936E-1,-7.217737E-2,2.3716785E-2,-1.7836414E-1,-9.2050195E-2,5.736143E-2,-2.4810044E-2,-2.5592247E-2,7.59185E-2,-8.087525E-2,-6.957698E-3,6.538781E-2,-6.464218E-1,-8.8406324E-2,1.3724557E-2],"split_indices":[5,7,7,5,1,1,0,9,0,0,0,9,0,2,0,0,0,12,0,0,0,0,0,0,0,0,0,0,0],"split_type":[0,0,0,0,0,0,0,0,0,0,0,0,0,0,0,0,0,0,0,0,0,0,0,0,0,0,0,0,0],"sum_hessian":[9.946756E1,5.04867E1,4.8980865E1,8.355164E0,4.2131535E1,3.457754E1,1.4403322E1,4.6480794E0,3.7070847E0,4.0804832E1,1.3266995E0,5.7815123E0,2.879603E1,7.836836E0,6.5664864E0,2.9954486E0,1.6526308E0,1.5359724E1,2.5445108E1,3.9563713E0,1.825141E0,1.8248596E0,6.0119762E0,5.241757E0,1.3247296E0,1.7287755E0,1.3630949E1,1.1727709E1,1.9032397E0],"tree_param":{"num_deleted":"0","num_feature":"18","num_nodes":"29","size_leaf_vector":"1"}},{"base_weights":[-1.04014196E-1,-1.1980252E0,1.1840326E0,-2.719499E-2,-1.5786359E0,1.5616506E0,3.9154485E-2,-1.2061476E0,8.255277E-1,-6.908813E-3,-1.6243881E0,5.1640767E-1,8.843525E-2,1.0435457E0,-7.5269476E-2,-7.4992284E-2,5.7400498E-3,-1.5637122E-1,6.381365E-2,-8.5915744E-1,-1.7158009E0,9.589719E-1,-2.4005013E-2,1.3103138E0,-8.50466E-3,-5.451668E-2,3.9247204E-2,3.6895677E-2,-7.4406534E-2,-8.877074E-2,-8.9865625E-1,5.9403934E-2,2.039632E-3,2.3373818E-2,7.474013E-2,6.348697E-3,-6.390293E-2],"categories":[],"categories_nodes":[],"categories_segments":[],"categories_sizes":[],"default_left":[0,0,0,0,0,0,0,0,0,0,0,0,0,0,0,0,0,0,0,0,0,0,0,0,0,0,0,0,0,0,0,0,0,0,0,0,0],"id":2,"left_children":[1,3,5,7,9,11,13,15,17,-1,19,21,-1,23,-1,-1,-1,25,-1,27,29,31,-1,33,-1,-1,-1,-1,-1,-1,35,-1,-1,-1,-1,-1,-1],"loss_changes":[1.3838611E2,2.3600304E1,1.9455784E1,1.5103892E1,2.4131622E0,6.4279633E0,2.0532145E1,2.6149359E0,4.0665064E0,0E0,1.2327957E0,3.556756E0,0E0,2.811966E0,0E0,0E0,0E0,4.0557647E0,0E0,7.2581186E0,3.955841E-2,1.044435E0,0E0,3.3848286E-1,0E0,0E0,0E0,0E0,0E0,0E0,1.8383121E0,0E0,0E0,0E0,0E0,0E0,0E0],"parents":[2147483647,0,0,1,1,2,2,3,3,4,4,5,5,6,6,7,7,8,8,10,10,11,11,13,13,17,17,19,19,20,20,21,21,23,23,30,30],"right_children":[2,4,6,8,10,12,14,16,18,-1,20,22,-1,24,-1,-1,-1,26,-1,28,30,32,-1,34,-1,-1,-1,-1,-1,-1,36,-1,-1,-1,-1,-1,-1],"split_conditions":[1.9605084E-1,-1.0079194E-1,2.2364207E-2,-1.2780072E-1,-2.6722505E0,-1.0382255E-1,-5.185075E-1,2.3422594E0,-9.930728E-2,-6.908813E-3,-1.2050949E0,-2.424534E-2,8.843525E-2,2.084047E0,-7.5269476E-2,-7.4992284E-2,5.7400498E-3,-9.410625E-2,6.381365E-2,2.095291E-3,1.0307075E-1,7.130474E-1,-2.4005013E-2,-8.244595E-1,-8.50466E-3,-5.451668E-2,3.9247204E-2,3.6895677E-2,-7.4406534E-2,-8.877074E-2,7.7437565E-2,5.9403934E-2,2.039632E-3,2.3373818E-2,7.474013E-2,6.348697E-3,-6.390293E-2],"split_indices":[8,7,7,9,6,1,0,0,17,0,17,9,0,8,0,0,0,8,0,16,8,11,0,2,0,0,0,0,0,0,0,0,0,0,0,0,0],"split_type":[0,0,0,0,0,0,0,0,0,0,0,0,0,0,0,0,0,0,0,0,0,0,0,0,0,0,0,0,0,0,0,0,0,0,0,0,0],"sum_hessian":[9.6199615E1,5.2055676E1,4.414394E1,1.303353E1,3.9022144E1,3.2921368E1,1.1222573E1,5.296399E0,7.7371316E0,1.3250318E0,3.7697113E1,6.0209107E0,2.6900457E1,6.996944E0,4.2256293E0,4.2222075E0,1.0741916E0,2.6397684E0,5.097363E0,5.1323195E0,3.2564793E1,4.195357E0,1.825554E0,5.6707973E0,1.3261467E0,1.2455947E0,1.3941736E0,1.4012082E0,3.7311113E0,2.9257626E1,3.307167E0,3.1223168E0,1.0730399E0,1.6529927E0,4.0178046E0,1.0726976E0,2.2344694E0],"tree_param":{"num_deleted":"0","num_feature":"18","num_nodes":"37","size_leaf_vector":"1"}},{"base_weights":[1.24441385E-2,-9.0877175E-1,1.2873394E0,3.808218E-1,-1.409802E0,1.5229983E0,6.1257464E-1,-9.684225E-1,1.3002747E0,-5.249676E-1,-1.590619E0,5.464283E-4,1.5811538E0,1.2418107E0,-6.383347E-2,-7.5483866E-2,3.60264E-2,8.094517E-3,7.09221E-2,-7.1907364E-2,7.787353E-1,3.9751534E-3,-8.25251E-2,2.255218E-2,8.1778705E-2,6.994516E-2,3.2641692E-4,6.304108E-2,-6.4807697E-3],"categories":[],"categories_nodes":[],"categories_segments":[],"categories_sizes":[],"default_left":[0,0,0,0,0,0,0,0,0,0,0,0,0,0,0,0,0,0,0,0,0,0,0,0,0,0,0,0,0],"id":3,"left_children":[1,3,5,7,9,11,13,15,17,19,21,-1,23,25,-1,-1,-1,-1,-1,-1,27,-1,-1,-1,-1,-1,-1,-1,-1],"loss_changes":[1.106579E2,3.5883366E1,5.3511887E0,2.1225254E1,5.5024643E0,2.4991608E0,1.5734514E1,7.5744066E0,1.1153641E0,1.0898499E1,3.371338E0,0E0,9.566498E-1,1.8218412E0,0E0,0E0,0E0,0E0,0E0,0E0,1.9291046E0,0E0,0E0,0E0,0E0,0E0,0E0,0E0,0E0],"parents":[2147483647,0,0,1,1,2,2,3,3,4,4,5,5,6,6,7,7,8,8,9,9,10,10,12,12,13,13,20,20],"right_children":[2,4,6,8,10,12,14,16,18,20,22,-1,24,26,-1,-1,-1,-1,-1,-1,28,-1,-1,-1,-1,-1,-1,-1,-1],"split_conditions":[4.0740898E-1,-1.0079194E-1,2.2364207E-2,-1.03678234E-1,-2.3143284E-1,-1.827337E0,-5.185075E-1,-1.7072056E-1,-3.406479E-1,-5.8655006E-1,-2.6722505E0,5.464283E-4,-4.8847923E-1,-1.2480163E-1,-6.383347E-2,-7.5483866E-2,3.60264E-2,8.094517E-3,7.09221E-2,-7.1907364E-2,-6.45677E-1,3.9751534E-3,-8.25251E-2,2.255218E-2,8.1778705E-2,6.994516E-2,3.2641692E-4,6.304108E-2,-6.4807697E-3],"split_indices":[5,7,7,9,9,15,0,6,0,5,6,0,0,14,0,0,0,0,0,0,0,0,0,0,0,0,0,0,0],"split_type":[0,0,0,0,0,0,0,0,0,0,0,0,0,0,0,0,0,0,0,0,0,0,0,0,0,0,0,0,0],"sum_hessian":[9.222461E1,5.3705315E1,3.851929E1,1.5094291E1,3.8611027E1,2.7617065E1,1.0902226E1,6.0957985E0,8.998492E0,7.2137246E0,3.13973E1,1.0668318E0,2.6550234E1,8.435406E0,2.4668212E0,4.696776E0,1.3990221E0,1.0691048E0,7.9293876E0,4.1815968E0,3.0321276E0,1.0754552E0,3.0321844E1,1.6465085E0,2.4903725E1,7.3661823E0,1.069223E0,1.727345E0,1.3047827E0],"tree_param":{"num_deleted":"0","num_feature":"18","num_nodes":"29","size_leaf_vector":"1"}},{"base_weights":[-9.055573E-2,-1.066042E0,1.0963167E0,2.6511976E-1,-1.3040931E0,1.515124E0,3.89501E-1,-5.544349E-1,1.0217059E0,-1.421081E0,-7.316634E-2,6.647055E-1,8.14876E-2,1.1052622E0,-4.445543E-1,-6.359296E-2,3.564544E-2,6.589454E-2,-1.1544809E-3,-5.455207E-1,-1.5468866E0,5.1867496E-2,-6.881032E-1,-1.8875195E-2,6.393672E-2,7.220376E-2,-1.9436765E-2,7.563537E-1,-7.1036406E-2,4.7747698E-2,-6.915593E-2,-9.135763E-3,-1.60469E0,8.696901E-3,-5.453617E-2,-9.49351E-3,5.990526E-2,-6.8253367E-3,-8.305337E-2],"categories":[],"categories_nodes":[],"categories_segments":[],"categories_sizes":[],"default_left":[0,0,0,0,0,0,0,0,0,0,0,0,0,0,0,0,0,0,0,0,0,0,0,0,0,0,0,0,0,0,0,0,0,0,0,0,0,0,0],"id":4,"left_children":[1,3,5,7,9,11,13,15,17,19,21,23,-1,25,27,-1,-1,-1,-1,29,31,-1,33,-1,-1,-1,-1,35,-1,-1,-1,-1,37,-1,-1,-1,-1,-1,-1],"loss_changes":[1.1038956E2,1.6914486E1,1.215358E1,6.000051E0,6.307541E0,1.518158E0,1.0857157E1,5.3206882E0,1.5493097E0,3.6287766E0,4.0726647E0,3.5919807E0,0E0,5.436596E0,1.1311407E1,0E0,0E0,0E0,0E0,9.67363E0,2.463417E0,0E0,1.4970888E0,0E0,0E0,0E0,0E0,2.1369011E0,0E0,0E0,0E0,0E0,2.53862E0,0E0,0E0,0E0,0E0,0E0,0E0],"parents":[2147483647,0,0,1,1,2,2,3,3,4,4,5,5,6,6,7,7,8,8,9,9,10,10,11,11,13,13,14,14,19,19,20,20,22,22,27,27,32,32],"right_children":[2,4,6,8,10,12,14,16,18,20,22,24,-1,26,28,-1,-1,-1,-1,30,32,-1,34,-1,-1,-1,-1,36,-1,-1,-1,-1,38,-1,-1,-1,-1,-1,-1],"split_conditions":[1.9605084E-1,-2.3183009E-1,-7.517544E-2,-1.03678234E-1,2.006344E-1,-1.0382255E-1,-5.185075E-1,-2.622216E-1,7.1481436E-1,-1.2050949E0,-1.0079194E-1,1.3022792E0,8.14876E-2,5.229398E-2,1.05412165E-2,-6.359296E-2,3.564544E-2,6.589454E-2,-1.1544809E-3,2.095291E-3,-2.3484503E-1,5.1867496E-2,1.3651749E0,-1.8875195E-2,6.393672E-2,7.220376E-2,-1.9436765E-2,3.104165E-1,-7.1036406E-2,4.7747698E-2,-6.915593E-2,-9.135763E-3,-1.6016359E0,8.696901E-3,-5.453617E-2,-9.49351E-3,5.990526E-2,-6.8253367E-3,-8.305337E-2],"split_indices":[8,7,7,9,13,1,0,8,3,17,7,8,0,9,7,0,0,0,0,16,13,0,13,0,0,0,0,3,0,0,0,0,10,0,0,0,0,0,0],"split_type":[0,0,0,0,0,0,0,0,0,0,0,0,0,0,0,0,0,0,0,0,0,0,0,0,0,0,0,0,0,0,0,0,0,0,0,0,0,0,0],"sum_hessian":[9.333661E1,5.1286346E1,4.205026E1,7.7629414E0,4.3523407E1,2.5686644E1,1.6363617E1,3.8546588E0,3.9082825E0,3.9604862E1,3.9185436E0,3.8586137E0,2.182803E1,8.631315E0,7.732301E0,2.4590592E0,1.3955995E0,2.8413997E0,1.066883E0,5.646128E0,3.3958733E1,1.1517229E0,2.7668207E0,1.5733395E0,2.2852743E0,7.0629697E0,1.5683453E0,3.568029E0,4.1642723E0,1.9724917E0,3.6736364E0,1.5495702E0,3.2409164E1,1.0616755E0,1.7051452E0,1.3170719E0,2.2509568E0,1.3249931E0,3.1084171E1],"tree_param":{"num_deleted":"0","num_feature":"18","num_nodes":"39","size_leaf_vector":"1"}},{"base_weights":[2.2581825E-2,-1.3152919E0,8.811692E-1,-2.2421253E-1,-1.5058979E0,-7.97778E-1,1.0721956E0,-6.1787326E-2,7.493181E-1,-1.5594816E0,-7.5714327E-3,4.917386E-2,-6.823318E-2,5.051643E-1,1.3442539E0,4.7089487E-2,5.577991E-3,-8.106166E-2,-6.221711E-1,9.621414E-1,-5.429987E-1,-2.2702353E-4,1.3869425E0,-4.9297106E-2,5.7762153E-3,1.2156955E0,-2.1626158E-2,-6.336198E-2,4.5359427E-1,7.22743E-2,5.769014E-1,6.827373E-2,1.4143174E-2,-6.371148E-3,4.3323036E-2,-1.0222497E-2,5.1533848E-2],"categories":[],"categories_nodes":[],"categories_segments":[],"categories_sizes":[],"default_left":[0,0,0,0,0,0,0,0,0,0,0,0,0,0,0,0,0,0,0,0,0,0,0,0,0,0,0,0,0,0,0,0,0,0,0,0,0],"id":5,"left_children":[1,3,5,7,9,11,13,-1,15,17,-1,-1,-1,19,21,-1,-1,-1,23,25,27,-1,29,-1,-1,31,-1,-1,33,-1,35,-1,-1,-1,-1,-1,-1],"loss_changes":[1.0904203E2,7.38076E0,1.9394886E1,7.518249E0,2.0441818E0,7.8838487E0,7.393154E0,0E0,3.900795E-1,7.344513E-1,0E0,0E0,0E0,9.416256E0,2.0076408E0,0E0,0E0,0E0,1.0488994E0,5.2259245E0,5.1051536E0,0E0,7.640381E-1,0E0,0E0,1.2217865E0,0E0,0E0,9.207427E-1,0E0,1.6060206E0,0E0,0E0,0E0,0E0,0E0,0E0],"parents":[2147483647,0,0,1,1,2,2,3,3,4,4,5,5,6,6,8,8,9,9,13,13,14,14,18,18,19,19,20,20,22,22,25,25,28,28,30,30],"right_children":[2,4,6,8,10,12,14,-1,16,18,-1,-1,-1,20,22,-1,-1,-1,24,26,28,-1,30,-1,-1,32,-1,-1,34,-1,36,-1,-1,-1,-1,-1,-1],"split_conditions":[-7.7000507E-3,-9.503646E-1,-1.0257922E0,-6.4643085E-1,1.1015774E-1,-5.185075E-1,5.4022217E-1,-6.1787326E-2,-7.130453E-1,2.4072154E0,-7.5714327E-3,4.917386E-2,-6.823318E-2,2.0047212E-2,-9.8475164E-1,4.7089487E-2,5.577991E-3,-8.106166E-2,-3.8758287E-1,4.4066915E-1,5.7178026E-1,-2.2702353E-4,1.1662904E0,-4.9297106E-2,5.7762153E-3,-1.2816586E-1,-2.1626158E-2,-6.336198E-2,1.09089404E-1,7.22743E-2,-4.142638E-1,6.827373E-2,1.4143174E-2,-6.371148E-3,4.3323036E-2,-1.0222497E-2,5.1533848E-2],"split_indices":[5,17,11,0,9,0,5,0,14,14,0,0,0,9,6,0,0,0,5,17,2,0,6,0,0,12,0,0,11,0,14,0,0,0,0,0,0],"split_type":[0,0,0,0,0,0,0,0,0,0,0,0,0,0,0,0,0,0,0,0,0,0,0,0,0,0,0,0,0,0,0,0,0,0,0,0,0],"sum_hessian":[9.291902E1,3.6113724E1,5.6805294E1,5.6943083E0,3.0419416E1,5.478454E0,5.132684E1,2.660552E0,3.0337563E0,2.91162E1,1.3032168E0,1.1451888E0,4.3332653E0,1.7567982E1,3.3758858E1,1.964241E0,1.0695151E0,2.6631973E1,2.4842253E0,1.2291301E1,5.276681E0,1.0630851E0,3.2695774E1,1.4384052E0,1.0458201E0,1.0509049E1,1.7822516E0,2.8986278E0,2.3780534E0,2.9760456E1,2.9353168E0,8.655495E0,1.8535547E0,1.2750605E0,1.1029929E0,1.2802738E0,1.6550429E0],"tree_param":{"num_deleted":"0","num_feature":"18","num_nodes":"37","size_leaf_vector":"1"}},{"base_weights":[-4.4494994E-2,-1.0387584E0,1.0153785E0,5.890302E-1,-1.188346E0,1.4598304E0,2.4154411E-1,5.578177E-2,-9.13904E-3,-4.5363647E-1,-1.3829825E0,6.020166E-1,7.7935174E-2,1.000685E0,-1.0147817E0,-8.000143E-3,8.193002E-3,-8.7153846E-1,6.152317E-2,8.44579E-3,-1.4327018E0,5.033909E-2,-1.3904846E-2,1.2693794E0,-2.0334775E-2,-7.300547E-2,2.0853149E-2,3.1949654E-1,-7.0864014E-2,-1.4785596E0,-5.6656934E-3,7.010367E-2,1.6392546E-2,3.9017256E-2,-1.2361426E-2,-7.6239675E-2,-1.8770887E-2],"categories":[],"categories_nodes":[],"categories_segments":[],"categories_sizes":[],"default_left":[0,0,0,0,0,0,0,0,0,0,0,0,0,0,0,0,0,0,0,0,0,0,0,0,0,0,0,0,0,0,0,0,0,0,0,0,0],"id":6,"left_children":[1,3,5,7,9,11,13,-1,15,17,19,21,-1,23,25,-1,-1,27,-1,-1,29,-1,-1,31,-1,-1,-1,33,-1,35,-1,-1,-1,-1,-1,-1,-1],"loss_changes":[1.0675507E2,1.3422325E1,1.6519356E1,1.6059608E0,6.262802E0,1.6876144E0,1.922671E1,0E0,1.1400784E-1,9.221691E0,3.1434631E0,2.0003018E0,0E0,5.207677E0,5.5115795E0,0E0,0E0,6.863408E0,0E0,0E0,2.043373E0,0E0,0E0,8.721218E-1,0E0,0E0,0E0,1.215447E0,0E0,1.2244415E0,0E0,0E0,0E0,0E0,0E0,0E0,0E0],"parents":[2147483647,0,0,1,1,2,2,3,3,4,4,5,5,6,6,8,8,9,9,10,10,11,11,13,13,14,14,17,17,20,20,23,23,27,27,29,29],"right_children":[2,4,6,8,10,12,14,-1,16,18,20,22,-1,24,26,-1,-1,28,-1,-1,30,-1,-1,32,-1,-1,-1,34,-1,36,-1,-1,-1,-1,-1,-1,-1],"split_conditions":[2.3092145E-1,-1.3584627E0,-7.517544E-2,4.1866425E-1,-8.203808E-1,-1.7318274E-1,-1.7765777E-1,5.578177E-2,-7.746258E-2,-8.374886E-1,-2.3484503E-1,-3.972396E-1,7.7935174E-2,-5.185075E-1,6.4823073E-1,-8.000143E-3,8.193002E-3,-2.0156749E-1,6.152317E-2,8.44579E-3,1.2367128E0,5.033909E-2,-1.3904846E-2,9.1811144E-1,-2.0334775E-2,-7.300547E-2,2.0853149E-2,-5.0464827E-1,-7.0864014E-2,1.8962141E0,-5.6656934E-3,7.010367E-2,1.6392546E-2,3.9017256E-2,-1.2361426E-2,-7.6239675E-2,-1.8770887E-2],"split_indices":[5,7,7,4,14,0,13,0,15,14,13,0,0,0,3,0,0,12,0,0,3,0,0,10,0,0,0,0,0,16,0,0,0,0,0,0,0],"split_type":[0,0,0,0,0,0,0,0,0,0,0,0,0,0,0,0,0,0,0,0,0,0,0,0,0,0,0,0,0,0,0,0,0,0,0,0,0],"sum_hessian":[9.930461E1,5.12485E1,4.8056107E1,4.0659375E0,4.7182564E1,2.9961327E1,1.809478E1,1.7022547E0,2.3636827E0,1.0579179E1,3.6603386E1,3.8291104E0,2.6132217E1,1.1406083E1,6.688697E0,1.302746E0,1.0609366E0,8.862483E0,1.7166963E0,1.0618647E0,3.554152E1,2.5242722E0,1.3048381E0,9.65989E0,1.7461928E0,5.0868587E0,1.6018381E0,2.9150972E0,5.947386E0,3.4231113E1,1.3104069E0,8.037924E0,1.621967E0,1.39984E0,1.5152572E0,3.248731E1,1.7438035E0],"tree_param":{"num_deleted":"0","num_feature":"18","num_nodes":"37","size_leaf_vector":"1"}},{"base_weights":[7.415324E-2,-9.0790725E-1,1.0306375E0,-7.544534E-2,-1.1965595E0,1.3928126E0,2.5642726E-1,-1.1108668E0,8.6393154E-1,-7.0656127E-1,-7.454785E-2,6.069755E-1,7.627078E-2,1.0394758E0,-1.1301924E0,-1.3794556E-4,-6.839728E-2,1.1678064E0,2.4118482E-3,2.2883457E-1,-7.13852E-2,1.0199007E0,-2.088976E-2,-1.0438292E-2,1.2230117E0,-6.80278E-2,2.3708148E-3,9.2118E-4,7.199105E-2,6.648056E-2,-5.118369E-1,6.515861E-2,1.6166405E-5,6.383837E-3,7.27755E-2,2.7498452E-2,-5.7623502E-2],"categories":[],"categories_nodes":[],"categories_segments":[],"categories_sizes":[],"default_left":[0,0,0,0,0,0,0,0,0,0,0,0,0,0,0,0,0,0,0,0,0,0,0,0,0,0,0,0,0,0,0,0,0,0,0,0,0],"id":7,"left_children":[1,3,5,7,9,11,13,15,17,19,-1,21,-1,23,25,-1,-1,27,-1,29,-1,31,-1,-1,33,-1,-1,-1,-1,-1,35,-1,-1,-1,-1,-1,-1],"loss_changes":[9.112513E1,1.1421112E1,1.3413078E1,1.3994754E1,4.06818E0,2.5370407E0,1.9499882E1,1.9368715E0,1.8247957E0,1.0597555E1,0E0,3.1592069E0,0E0,2.8457222E0,1.8468599E0,0E0,0E0,1.6887403E0,0E0,6.787464E0,0E0,1.4131665E0,0E0,0E0,2.36166E0,0E0,0E0,0E0,0E0,0E0,4.1707106E0,0E0,0E0,0E0,0E0,0E0,0E0],"parents":[2147483647,0,0,1,1,2,2,3,3,4,4,5,5,6,6,7,7,8,8,9,9,11,11,13,13,14,14,17,17,19,19,21,21,24,24,30,30],"right_children":[2,4,6,8,10,12,14,16,18,20,-1,22,-1,24,26,-1,-1,28,-1,30,-1,32,-1,-1,34,-1,-1,-1,-1,-1,36,-1,-1,-1,-1,-1,-1],"split_conditions":[1.4278713E-1,-1.0079194E-1,-6.7006187E-3,-1.03678234E-1,-1.6137433E-1,-1.0382255E-1,-5.68522E-1,-2.3793209E-1,1.4209823E-1,-2.0533018E-2,-7.454785E-2,-3.1414592E-1,7.627078E-2,-7.0406204E-1,5.3397745E-1,-1.3794556E-4,-6.839728E-2,-6.0868806E-1,2.4118482E-3,2.095291E-3,-7.13852E-2,-2.3527847E-1,-2.088976E-2,-1.0438292E-2,-1.7703873E-1,-6.80278E-2,2.3708148E-3,9.2118E-4,7.199105E-2,6.648056E-2,-2.0173834E-1,6.515861E-2,1.6166405E-5,6.383837E-3,7.27755E-2,2.7498452E-2,-5.7623502E-2],"split_indices":[8,7,7,9,17,1,1,9,15,12,0,10,0,16,1,0,0,7,0,16,0,7,0,0,12,0,0,0,0,0,12,0,0,0,0,0,0],"split_type":[0,0,0,0,0,0,0,0,0,0,0,0,0,0,0,0,0,0,0,0,0,0,0,0,0,0,0,0,0,0,0,0,0,0,0,0,0],"sum_hessian":[9.501509E1,4.690581E1,4.810928E1,1.2401562E1,3.450425E1,3.2232105E1,1.5877172E1,5.812366E0,6.589196E0,1.4226136E1,2.0278114E1,5.458876E0,2.6773232E1,1.0306988E1,5.5701847E0,1.2848604E0,4.5275054E0,4.4862423E0,2.102954E0,6.4902697E0,7.735867E0,3.8944027E0,1.5644735E0,1.3036052E0,9.003383E0,4.528889E0,1.0412955E0,1.0628706E0,3.4233716E0,2.2907066E0,4.1995625E0,2.8299901E0,1.0644126E0,1.8477054E0,7.1556773E0,1.6335639E0,2.5659988E0],"tree_param":{"num_deleted":"0","num_feature":"18","num_nodes":"37","size_leaf_vector":"1"}},{"base_weights":[5.2538477E-2,-9.7913E-1,9.5139575E-1,-1.2212291E0,2.094197E-2,-8.980968E-2,1.1681508E0,-4.138808E-1,-1.3532381E0,-5.7860762E-2,6.507153E-1,-6.2086787E-2,9.002237E-1,6.0151327E-1,1.2730559E0,5.708037E-2,-6.27077E-2,-5.3808695E-1,-7.3892206E-2,5.4877736E-2,-1.7904105E-2,6.3978485E-3,6.173381E-2,1.0361309E0,-2.6342964E-2,7.049834E-2,7.4965775E-1,1.817184E-2,-5.5960756E-2,1.449912E-2,6.0988106E-2,-2.3729889E-2,1.1045799E0,5.438298E-4,6.421438E-2],"categories":[],"categories_nodes":[],"categories_segments":[],"categories_sizes":[],"default_left":[0,0,0,0,0,0,0,0,0,0,0,0,0,0,0,0,0,0,0,0,0,0,0,0,0,0,0,0,0,0,0,0,0,0,0],"id":8,"left_children":[1,3,5,7,9,11,13,15,17,-1,19,-1,21,23,25,-1,-1,27,-1,-1,-1,-1,-1,29,-1,-1,31,-1,-1,-1,-1,-1,33,-1,-1],"loss_changes":[8.3959206E1,1.0238152E1,1.1017838E1,3.0610237E0,7.5822053E0,1.1678806E1,1.6175499E0,9.55541E0,2.1261215E0,0E0,3.3852417E0,0E0,1.2780542E0,4.547159E0,1.3030891E0,0E0,0E0,3.2285533E0,0E0,0E0,0E0,0E0,0E0,4.995346E-1,0E0,0E0,4.4193034E0,0E0,0E0,0E0,0E0,0E0,1.4109945E0,0E0,0E0],"parents":[2147483647,0,0,1,1,2,2,3,3,4,4,5,5,6,6,7,7,8,8,10,10,12,12,13,13,14,14,17,17,23,23,26,26,32,32],"right_children":[2,4,6,8,10,12,14,16,18,-1,20,-1,22,24,26,-1,-1,28,-1,-1,-1,-1,-1,30,-1,-1,32,-1,-1,-1,-1,-1,34,-1,-1],"split_conditions":[1.4844401E-1,6.3126975E-1,-6.4344794E-1,-1.2050949E0,-1.7205118E-1,5.21923E-1,8.254768E-2,-2.0533018E-2,-8.879172E-1,-5.7860762E-2,1.3204489E0,-6.2086787E-2,9.55802E-1,-2.8707477E-1,-1.7123567E-1,5.708037E-2,-6.27077E-2,-2.0173834E-1,-7.3892206E-2,5.4877736E-2,-1.7904105E-2,6.3978485E-3,6.173381E-2,5.7567304E-1,-2.6342964E-2,7.049834E-2,-5.1260895E-1,1.817184E-2,-5.5960756E-2,1.449912E-2,6.0988106E-2,-2.3729889E-2,3.104165E-1,5.438298E-4,6.421438E-2],"split_indices":[5,2,16,17,13,5,11,12,14,0,2,0,5,16,13,0,0,12,0,0,0,0,0,5,0,0,17,0,0,0,0,0,3,0,0],"split_type":[0,0,0,0,0,0,0,0,0,0,0,0,0,0,0,0,0,0,0,0,0,0,0,0,0,0,0,0,0,0,0,0,0,0,0],"sum_hessian":[8.8534805E1,4.1180428E1,4.7354374E1,3.2976326E1,8.204104E0,8.260389E0,3.9093987E1,5.215334E0,2.7760992E1,2.5660744E0,5.63803E0,3.700518E0,4.559872E0,7.159007E0,3.1934978E1,1.703413E0,3.5119207E0,4.386112E0,2.337488E1,3.8463392E0,1.791691E0,1.7958213E0,2.7640507E0,5.227332E0,1.9316751E0,2.3970804E1,7.964174E0,1.8659706E0,2.5201414E0,1.5417789E0,3.6855533E0,1.7141746E0,6.249999E0,1.0316831E0,5.218316E0],"tree_param":{"num_deleted":"0","num_feature":"18","num_nodes":"35","size_leaf_vector":"1"}},{"base_weights":[2.7947301E-2,-9.1940075E-1,9.189296E-1,5.78925E-1,-1.0456548E0,1.3367647E0,1.3850439E-1,-9.2550805E-3,5.423936E-2,-4.9037257E-1,-1.3222353E0,-1.1453819E-2,1.4114417E0,1.0403963E0,-1.1777835E0,6.2054837E-1,-1.2057354E0,9.6729054E-4,-1.3864279E0,7.332318E-2,5.8341867E-1,-5.167085E-3,1.1659604E0,-6.837653E-2,2.0221276E-3,-1.331148E-1,5.8035173E-2,-6.816147E-2,-3.4943998E-3,-7.267548E-2,-5.0415366E-4,-6.894216E-3,4.607701E-2,5.0981206E-1,6.381606E-2,4.875197E-2,-4.944789E-2,4.427613E-2,-6.581825E-3],"categories":[],"categories_nodes":[],"categories_segments":[],"categories_sizes":[],"default_left":[0,0,0,0,0,0,0,0,0,0,0,0,0,0,0,0,0,0,0,0,0,0,0,0,0,0,0,0,0,0,0,0,0,0,0,0,0,0,0],"id":9,"left_children":[1,3,5,7,9,11,13,-1,-1,15,17,-1,19,21,23,25,27,-1,29,-1,31,-1,33,-1,-1,35,-1,-1,-1,-1,-1,-1,-1,37,-1,-1,-1,-1,-1],"loss_changes":[8.01608E1,9.315384E0,1.5768726E1,1.8325304E0,5.9281616E0,4.0358353E0,2.2802727E1,0E0,0E0,1.3326075E1,2.4377022E0,0E0,5.314293E-1,1.7457027E0,1.8719864E0,2.9470534E0,1.6877584E0,0E0,2.4532623E0,0E0,9.947244E-1,0E0,9.361935E-2,0E0,0E0,4.531192E0,0E0,0E0,0E0,0E0,0E0,0E0,0E0,8.7450933E-1,0E0,0E0,0E0,0E0,0E0],"parents":[2147483647,0,0,1,1,2,2,3,3,4,4,5,5,6,6,9,9,10,10,12,12,13,13,14,14,15,15,16,16,18,18,20,20,22,22,25,25,33,33],"right_children":[2,4,6,8,10,12,14,-1,-1,16,18,-1,20,22,24,26,28,-1,30,-1,32,-1,34,-1,-1,36,-1,-1,-1,-1,-1,-1,-1,38,-1,-1,-1,-1,-1],"split_conditions":[2.3092145E-1,-1.3584627E0,-6.7006187E-3,-2.2176E0,-3.745978E-1,-5.301843E-1,-5.185075E-1,-9.2550805E-3,5.423936E-2,-2.0533018E-2,-8.879172E-1,-1.1453819E-2,9.1632783E-1,-6.466752E-1,3.5115647E-1,-1.9539994E-1,8.156691E-1,9.6729054E-4,2.2061425E-1,7.332318E-2,1.0179695E0,-5.167085E-3,-8.244595E-1,-6.837653E-2,2.0221276E-3,-8.035569E-2,5.8035173E-2,-6.816147E-2,-3.4943998E-3,-7.267548E-2,-5.0415366E-4,-6.894216E-3,4.607701E-2,-8.2450986E-1,6.381606E-2,4.875197E-2,-4.944789E-2,4.427613E-2,-6.581825E-3],"split_indices":[5,7,7,7,17,1,0,0,0,12,14,0,17,0,0,5,3,0,13,0,5,0,2,0,0,16,0,0,0,0,0,0,0,2,0,0,0,0,0],"split_type":[0,0,0,0,0,0,0,0,0,0,0,0,0,0,0,0,0,0,0,0,0,0,0,0,0,0,0,0,0,0,0,0,0,0,0,0,0,0,0],"sum_hessian":[9.296839E1,4.5043465E1,4.7924923E1,3.2219083E0,4.1821556E1,3.0749146E1,1.717578E1,1.5360417E0,1.6858666E0,1.4826944E1,2.6994612E1,1.3055967E0,2.9443548E1,1.031664E1,6.8591394E0,5.859692E0,8.967253E0,1.2645705E0,2.5730042E1,2.6885939E1,2.5576096E0,1.0380685E0,9.278571E0,5.8287168E0,1.0304227E0,2.7609618E0,3.09873E0,7.699475E0,1.2677783E0,2.4480806E1,1.249236E0,1.0052817E0,1.5523279E0,2.1450024E0,7.133569E0,1.1424423E0,1.6185195E0,1.1127412E0,1.0322613E0],"tree_param":{"num_deleted":"0","num_feature":"18","num_nodes":"39","size_leaf_vector":"1"}},{"base_weights":[-3.4607284E-2,-9.588188E-1,9.610688E-1,-5.2997565E-1,-1.3456675E0,1.2772135E0,1.4374746E-1,1.5849197E-1,-1.2203679E0,3.271124E-3,-7.0691E-2,-3.8621258E-3,6.8663366E-2,9.5151895E-1,-6.344482E-2,8.5929066E-1,-2.956805E-1,-6.7479186E-2,-4.675781E-3,-1.5516775E-3,1.2576141E-3,-1.54094E-2,6.045518E-2,6.162898E-2,7.4458937E-3,-8.9536947E-1,5.3612906E-1,-6.028157E-2,2.887896E-3,5.116724E-2,-9.2372475E-3],"categories":[],"categories_nodes":[],"categories_segments":[],"categories_sizes":[],"default_left":[0,0,0,0,0,0,0,0,0,0,0,0,0,0,0,0,0,0,0,0,0,0,0,0,0,0,0,0,0,0,0],"id":10,"left_children":[1,3,5,7,9,11,13,15,17,-1,-1,19,-1,21,-1,23,25,-1,-1,-1,-1,-1,-1,-1,-1,27,29,-1,-1,-1,-1],"loss_changes":[8.100807E1,6.8576393E0,1.0770859E1,1.1264753E1,2.3373451E0,3.7514114E0,1.59862585E1,4.247795E0,1.5839558E0,0E0,0E0,3.2407232E-3,0E0,3.2317348E0,0E0,1.1927457E0,4.648988E0,0E0,0E0,0E0,0E0,0E0,0E0,0E0,0E0,1.6165042E0,1.638421E0,0E0,0E0,0E0,0E0],"parents":[2147483647,0,0,1,1,2,2,3,3,4,4,5,5,6,6,7,7,8,8,11,11,13,13,15,15,16,16,25,25,26,26],"right_children":[2,4,6,8,10,12,14,16,18,-1,-1,20,-1,22,-1,24,26,-1,-1,-1,-1,-1,-1,-1,-1,28,30,-1,-1,-1,-1],"split_conditions":[2.8609464E-1,-4.9985033E-3,1.05412165E-2,-2.0533018E-2,-1.3584627E0,-5.301843E-1,-5.9059525E-1,4.774113E-2,8.445336E-1,3.271124E-3,-7.0691E-2,-9.211894E-1,6.8663366E-2,-7.381005E-1,-6.344482E-2,-4.0400887E-1,-2.0337021E-2,-6.7479186E-2,-4.675781E-3,-1.5516775E-3,1.2576141E-3,-1.54094E-2,6.045518E-2,6.162898E-2,7.4458937E-3,6.7956483E-1,-1.5448806E-1,-6.028157E-2,2.887896E-3,5.116724E-2,-9.2372475E-3],"split_indices":[5,17,7,12,7,1,1,16,2,0,0,14,0,1,0,17,5,0,0,0,0,0,0,0,0,15,7,0,0,0,0],"split_type":[0,0,0,0,0,0,0,0,0,0,0,0,0,0,0,0,0,0,0,0,0,0,0,0,0,0,0,0,0,0,0],"sum_hessian":[8.603026E1,4.463549E1,4.1394764E1,2.2292738E1,2.2342754E1,2.944326E1,1.1951506E1,1.1547682E1,1.0745057E1,1.0312324E0,2.1311522E1,2.120592E0,2.7322668E1,7.811307E0,4.140198E0,4.190166E0,7.357516E0,9.462354E0,1.2827038E0,1.0591385E0,1.0614535E0,1.292744E0,6.5185633E0,2.2648885E0,1.9252772E0,4.2308755E0,3.1266403E0,2.991999E0,1.2388765E0,1.615313E0,1.5113273E0],"tree_param":{"num_deleted":"0","num_feature":"18","num_nodes":"31","size_leaf_vector":"1"}},{"base_weights":[2.0114718E-2,-8.3975804E-1,9.100147E-1,-2.6947582E-2,-1.0952506E0,1.277641E0,5.6400184E-2,-5.298548E-1,5.4541986E-2,-6.377166E-1,-6.823228E-2,5.7601273E-1,6.9561474E-2,8.828447E-1,-6.368871E-2,-8.630999E-1,4.738152E-2,4.314437E-1,-1.0110757E0,5.1577102E-2,-2.2408895E-2,-3.8921244E-2,6.4253226E-2,-6.383369E-2,-7.205482E-2,-4.1785855E-2,5.9864014E-2,1.01380395E-2,-1.1523105E0,-3.442471E-2,4.2039797E-2,2.765276E-2,-4.0471956E-2,-6.5367356E-2,-1.1347003E-2],"categories":[],"categories_nodes":[],"categories_segments":[],"categories_sizes":[],"default_left":[0,0,0,0,0,0,0,0,0,0,0,0,0,0,0,0,0,0,0,0,0,0,0,0,0,0,0,0,0,0,0,0,0,0,0],"id":11,"left_children":[1,3,5,7,9,11,13,15,-1,17,-1,19,-1,21,-1,23,-1,25,27,-1,-1,29,-1,-1,31,-1,-1,-1,33,-1,-1,-1,-1,-1,-1],"loss_changes":[6.930284E1,9.538403E0,1.3891327E1,7.348444E0,3.4473686E0,1.6736488E0,1.6999443E1,5.239226E0,0E0,6.367616E0,0E0,3.2773244E0,0E0,3.5712314E0,0E0,2.4763417E0,0E0,5.412936E0,2.1729546E0,0E0,0E0,2.7822928E0,0E0,0E0,2.1785512E0,0E0,0E0,0E0,1.1785393E0,0E0,0E0,0E0,0E0,0E0,0E0],"parents":[2147483647,0,0,1,1,2,2,3,3,4,4,5,5,6,6,7,7,9,9,11,11,13,13,15,15,17,17,18,18,21,21,24,24,28,28],"right_children":[2,4,6,8,10,12,14,16,-1,18,-1,20,-1,22,-1,24,-1,26,28,-1,-1,30,-1,-1,32,-1,-1,-1,34,-1,-1,-1,-1,-1,-1],"split_conditions":[2.3092145E-1,-1.0079194E-1,-6.7006187E-3,-1.1136677E-1,-1.6137433E-1,-1.7318274E-1,-5.185075E-1,1.2277604E0,5.4541986E-2,2.095291E-3,-6.823228E-2,2.6264495E-1,6.9561474E-2,-8.244595E-1,-6.368871E-2,1.1006838E0,4.738152E-2,-5.239235E-1,-1.6016359E0,5.1577102E-2,-2.2408895E-2,2.356337E0,6.4253226E-2,-6.383369E-2,1.3183388E0,-4.1785855E-2,5.9864014E-2,1.01380395E-2,5.9691817E-1,-3.442471E-2,4.2039797E-2,2.765276E-2,-4.0471956E-2,-6.5367356E-2,-1.1347003E-2],"split_indices":[5,7,7,10,17,0,0,14,0,16,0,6,0,2,0,16,0,5,10,0,0,5,0,0,16,0,0,0,6,0,0,0,0,0,0],"split_type":[0,0,0,0,0,0,0,0,0,0,0,0,0,0,0,0,0,0,0,0,0,0,0,0,0,0,0,0,0,0,0,0,0,0,0],"sum_hessian":[8.8569496E1,4.507336E1,4.349614E1,1.1044007E1,3.4029354E1,3.0055422E1,1.3440717E1,7.979779E0,3.064228E0,1.3858918E1,2.0170435E1,5.033688E0,2.5021734E1,8.49748E0,4.9432364E0,6.85049E0,1.1292887E0,3.5467591E0,1.031216E1,3.4791076E0,1.5545805E0,2.855887E0,5.641593E0,4.0954175E0,2.7550726E0,1.3017024E0,2.2450569E0,1.0293999E0,9.28276E0,1.7678763E0,1.0880107E0,1.6263381E0,1.1287344E0,7.5971503E0,1.6856091E0],"tree_param":{"num_deleted":"0","num_feature":"18","num_nodes":"35","size_leaf_vector":"1"}},{"base_weights":[3.9583296E-2,-7.8396565E-1,8.794399E-1,8.0987805E-1,-9.47317E-1,1.2599262E0,1.4343414E-1,6.108277E-2,-6.426383E-3,-2.5302076E-1,-1.1483335E0,3.6292502E-1,6.811131E-2,9.360807E-1,-6.2307894E-2,-5.5983897E-2,3.8706228E-1,1.15802124E-1,-1.3036363E0,5.3354084E-2,-2.6598502E-2,1.5037633E-3,1.1192652E0,9.211165E-1,-2.2577162E-1,-3.9863613E-2,6.9692606E-1,-4.3374324E-1,-6.8061E-2,6.359244E-2,4.2698085E-1,5.6530427E-2,9.272053E-3,2.3779312E-2,-4.4801127E-2,4.4809204E-2,6.931308E-3,1.0497735E-2,-4.1807562E-2,4.090438E-2,-9.5061725E-3],"categories":[],"categories_nodes":[],"categories_segments":[],"categories_sizes":[],"default_left":[0,0,0,0,0,0,0,0,0,0,0,0,0,0,0,0,0,0,0,0,0,0,0,0,0,0,0,0,0,0,0,0,0,0,0,0,0,0,0,0,0],"id":12,"left_children":[1,3,5,7,9,11,13,-1,-1,15,17,19,-1,21,-1,-1,23,25,27,-1,-1,-1,29,31,33,-1,35,37,-1,-1,39,-1,-1,-1,-1,-1,-1,-1,-1,-1,-1],"loss_changes":[5.8804867E1,1.1950027E1,1.1600792E1,1.9082382E0,5.2110977E0,2.0387535E0,1.8201242E1,0E0,0E0,6.05461E0,6.0969734E0,3.2074385E0,0E0,1.6955681E0,0E0,0E0,2.3587596E0,2.8012488E0,7.647896E-1,0E0,0E0,0E0,3.6951542E-1,3.6186433E-1,2.2421923E0,0E0,2.2282434E-1,9.908172E-1,0E0,0E0,8.954385E-1,0E0,0E0,0E0,0E0,0E0,0E0,0E0,0E0,0E0,0E0],"parents":[2147483647,0,0,1,1,2,2,3,3,4,4,5,5,6,6,9,9,10,10,11,11,13,13,16,16,17,17,18,18,22,22,23,23,24,24,26,26,27,27,30,30],"right_children":[2,4,6,8,10,12,14,-1,-1,16,18,20,-1,22,-1,-1,24,26,28,-1,-1,-1,30,32,34,-1,36,38,-1,-1,40,-1,-1,-1,-1,-1,-1,-1,-1,-1,-1],"split_conditions":[2.3802266E-1,-1.3584627E0,1.05412165E-2,-1.4525506E-1,-8.203808E-1,-1.0382255E-1,-5.68522E-1,6.108277E-2,-6.426383E-3,-7.378159E-1,-1.0802981E0,-5.3483135E-1,6.811131E-2,4.7972602E-1,-6.2307894E-2,-5.5983897E-2,-5.607633E-1,-4.178018E-1,-3.7222812E-1,5.3354084E-2,-2.6598502E-2,1.5037633E-3,9.1811144E-1,-1.2234287E-1,-1.8798651E-1,-3.9863613E-2,-3.4611285E-1,3.9340588E-1,-6.8061E-2,6.359244E-2,5.1280093E-1,5.6530427E-2,9.272053E-3,2.3779312E-2,-4.4801127E-2,4.4809204E-2,6.931308E-3,1.0497735E-2,-4.1807562E-2,4.090438E-2,-9.5061725E-3],"split_indices":[5,7,7,6,14,1,1,0,0,1,17,1,0,6,0,0,2,5,7,0,0,0,10,9,7,0,5,1,0,0,7,0,0,0,0,0,0,0,0,0,0],"split_type":[0,0,0,0,0,0,0,0,0,0,0,0,0,0,0,0,0,0,0,0,0,0,0,0,0,0,0,0,0,0,0,0,0,0,0,0,0,0,0,0,0],"sum_hessian":[8.3022736E1,4.1951935E1,4.10708E1,3.5319803E0,3.8419956E1,2.6605137E1,1.4465663E1,2.2450147E0,1.2869655E0,9.133216E0,2.928674E1,3.1891587E0,2.3415977E1,9.419172E0,5.0464907E0,3.5616105E0,5.571605E0,3.232133E0,2.6054607E1,1.6771038E0,1.5120549E0,1.7799519E0,7.6392207E0,2.70836E0,2.8632452E0,1.1123834E0,2.1197495E0,2.14738E0,2.3907227E1,5.5735908E0,2.0656297E0,1.6902199E0,1.0181402E0,1.5410789E0,1.3221662E0,1.1161809E0,1.0035685E0,1.0100088E0,1.1373713E0,1.064981E0,1.0006487E0],"tree_param":{"num_deleted":"0","num_feature":"18","num_nodes":"41","size_leaf_vector":"1"}},{"base_weights":[-2.3133023E-2,-8.9165336E-1,7.4005556E-1,3.752243E-1,-1.0138662E0,1.1911939E0,-8.952916E-2,5.719034E-2,-4.588135E-2,-1.1632098E0,-1.856102E-1,-1.3658941E-2,1.264606E0,7.9584813E-1,-6.331273E-2,-6.083337E-1,-1.2370455E0,-7.9881346E-1,4.8034396E-2,7.028571E-1,6.7219935E-2,5.304098E-2,-2.4734788E-2,-5.2643742E-2,1.3669535E-2,-6.43355E-2,-1.4816524E-2,-5.3618606E-2,7.228882E-3,6.1266314E-2,-2.1800965E-2],"categories":[],"categories_nodes":[],"categories_segments":[],"categories_sizes":[],"default_left":[0,0,0,0,0,0,0,0,0,0,0,0,0,0,0,0,0,0,0,0,0,0,0,0,0,0,0,0,0,0,0],"id":13,"left_children":[1,3,5,7,9,11,13,-1,-1,15,17,-1,19,21,-1,23,25,27,-1,29,-1,-1,-1,-1,-1,-1,-1,-1,-1,-1,-1],"loss_changes":[5.9242348E1,6.850895E0,1.7917278E1,5.4283447E0,4.5320473E0,3.6668282E0,1.9441692E1,0E0,0E0,5.720482E-1,5.725541E0,0E0,3.8178253E-1,4.187408E0,0E0,2.547318E0,9.0660477E-1,1.4818976E0,0E0,3.9716938E0,0E0,0E0,0E0,0E0,0E0,0E0,0E0,0E0,0E0,0E0,0E0],"parents":[2147483647,0,0,1,1,2,2,3,3,4,4,5,5,6,6,9,9,10,10,12,12,13,13,15,15,16,16,17,17,19,19],"right_children":[2,4,6,8,10,12,14,-1,-1,16,18,-1,20,22,-1,24,26,28,-1,30,-1,-1,-1,-1,-1,-1,-1,-1,-1,-1,-1],"split_conditions":[1.4844401E-1,-1.3584627E0,1.05412165E-2,1.4378178E0,-9.8044135E-2,-8.1967086E-1,-5.9059525E-1,5.719034E-2,-4.588135E-2,-2.3482203E-1,-9.719388E-2,-1.3658941E-2,-1.0382255E-1,5.572244E-2,-6.331273E-2,-5.8655006E-1,1.1264694E0,5.130358E-1,4.8034396E-2,-4.6033332E-1,6.7219935E-2,5.304098E-2,-2.4734788E-2,-5.2643742E-2,1.3669535E-2,-6.43355E-2,-1.4816524E-2,-5.3618606E-2,7.228882E-3,6.1266314E-2,-2.1800965E-2],"split_indices":[5,7,7,1,13,4,1,0,0,9,9,0,1,9,0,5,1,7,0,10,0,0,0,0,0,0,0,0,0,0,0],"split_type":[0,0,0,0,0,0,0,0,0,0,0,0,0,0,0,0,0,0,0,0,0,0,0,0,0,0,0,0,0,0,0],"sum_hessian":[8.738038E1,4.0791122E1,4.6589252E1,3.4066818E0,3.738444E1,2.9895708E1,1.6693542E1,2.20884E0,1.1978419E0,3.133076E1,6.053683E0,1.2972807E0,2.8598427E1,9.710765E0,6.9827785E0,4.7645063E0,2.6566254E1,4.141406E0,1.9122767E0,4.7769203E0,2.3821507E1,8.204286E0,1.5064793E0,3.0384798E0,1.7260264E0,2.4884682E1,1.6815718E0,3.1044707E0,1.0369352E0,3.2226117E0,1.5543085E0],"tree_param":{"num_deleted":"0","num_feature":"18","num_nodes":"31","size_leaf_vector":"1"}},{"base_weights":[-5.663639E-2,-9.0275764E-1,8.3569974E-1,-6.383196E-2,-1.2102829E0,6.595262E-2,2.5948495E-1,-5.531624E-1,5.3179957E-2,3.322112E-3,-1.2646083E0,-5.3168404E-1,6.859549E-1,4.1255765E-2,-1.0285815E0,1.0524428E-3,-6.620231E-2,-9.621147E-1,3.4050342E-1,8.2625496E-1,-1.9428859E-2,7.971713E-3,-6.29127E-2,-5.7589676E-2,-1.1540441E-2,3.675289E-2,-9.460976E-3,1.1846981E0,9.4989225E-2,2.0163028E-2,6.34589E-2,-4.982553E-2,3.5842862E-2],"categories":[],"categories_nodes":[],"categories_segments":[],"categories_sizes":[],"default_left":[0,0,0,0,0,0,0,0,0,0,0,0,0,0,0,0,0,0,0,0,0,0,0,0,0,0,0,0,0,0,0,0,0],"id":14,"left_children":[1,3,5,7,9,-1,11,13,-1,-1,15,17,19,-1,21,-1,-1,23,25,27,-1,-1,-1,-1,-1,-1,-1,29,31,-1,-1,-1,-1],"loss_changes":[6.0712738E1,1.0562923E1,1.0567135E1,7.274008E0,2.1733704E0,0E0,6.8137617E0,6.8172164E0,0E0,0E0,2.2397041E0,3.0522587E0,2.2591505E0,0E0,2.1699777E0,0E0,0E0,4.4449186E-1,7.946917E-1,2.951847E0,0E0,0E0,0E0,0E0,0E0,0E0,0E0,3.5190582E-4,4.0625224E0,0E0,0E0,0E0,0E0],"parents":[2147483647,0,0,1,1,2,2,3,3,4,4,6,6,7,7,10,10,11,11,12,12,14,14,17,17,18,18,19,19,27,27,28,28],"right_children":[2,4,6,8,10,-1,12,14,-1,-1,16,18,20,-1,22,-1,-1,24,26,28,-1,-1,-1,-1,-1,-1,-1,30,32,-1,-1,-1,-1],"split_conditions":[1.4961693E-1,-1.0079194E-1,-1.9488326E-1,2.0572577E-1,-2.3484503E-1,6.595262E-2,4.474279E-1,-5.3025585E-1,5.3179957E-2,3.322112E-3,-2.6722505E0,-1.7875072E-1,1.1393881E0,4.1255765E-2,-2.5560334E0,1.0524428E-3,-6.620231E-2,5.268826E-1,-6.7006187E-3,-5.7665426E-1,-1.9428859E-2,7.971713E-3,-6.29127E-2,-5.7589676E-2,-1.1540441E-2,3.675289E-2,-9.460976E-3,6.3988256E-1,1.35140605E-2,2.0163028E-2,6.34589E-2,-4.982553E-2,3.5842862E-2],"split_indices":[8,7,7,6,13,0,8,16,0,0,6,12,6,0,7,0,0,2,7,1,0,0,0,0,0,0,0,6,1,0,0,0,0],"split_type":[0,0,0,0,0,0,0,0,0,0,0,0,0,0,0,0,0,0,0,0,0,0,0,0,0,0,0,0,0,0,0,0,0],"sum_hessian":[7.8412384E1,4.024245E1,3.8169937E1,1.11186E1,2.912385E1,2.005653E1,1.8113405E1,8.108632E0,3.009968E0,1.1795526E0,2.7944298E1,6.2576923E0,1.1855713E1,1.8909795E0,6.2176523E0,1.2633636E0,2.6680935E1,4.120896E0,2.1367965E0,1.0690877E1,1.1648355E0,1.0568346E0,5.1608176E0,2.8156252E0,1.3052707E0,1.0024863E0,1.1343101E0,6.758172E0,3.9327052E0,1.222599E0,5.535573E0,1.2087194E0,2.7239857E0],"tree_param":{"num_deleted":"0","num_feature":"18","num_nodes":"33","size_leaf_vector":"1"}},{"base_weights":[6.922535E-2,-6.899432E-1,8.3873427E-1,7.7096206E-1,-8.399837E-1,1.2143893E0,1.715363E-1,-1.3649857E-3,5.5255916E-2,-3.109646E-1,-1.0930552E0,6.3256393E-3,6.358885E-2,6.8886846E-1,-6.5084314E-1,5.66544E-1,-1.0133138E0,-1.215381E0,-3.0353751E-2,-9.8968465E-3,8.406881E-1,-6.1130166E-2,2.650009E-2,8.141568E-1,-7.5969496E-3,-5.9404965E-2,1.1990065E-3,-5.8106464E-1,-6.442874E-2,-4.1777086E-2,4.7456082E-2,-7.988426E-3,9.848683E-1,4.9490113E-2,2.0271654E-3,6.7881355E-3,-4.5004975E-2,5.681331E-2,9.919846E-3],"categories":[],"categories_nodes":[],"categories_segments":[],"categories_sizes":[],"default_left":[0,0,0,0,0,0,0,0,0,0,0,0,0,0,0,0,0,0,0,0,0,0,0,0,0,0,0,0,0,0,0,0,0,0,0,0,0,0,0],"id":15,"left_children":[1,3,5,7,9,11,13,-1,-1,15,17,-1,-1,19,21,23,25,27,29,-1,31,-1,-1,33,-1,-1,-1,35,-1,-1,-1,-1,37,-1,-1,-1,-1,-1,-1],"loss_changes":[4.9085777E1,9.929682E0,1.0240028E1,1.2213082E0,4.8654423E0,1.4939041E0,7.3324513E0,0E0,0E0,9.189451E0,3.3302555E0,0E0,0E0,1.5690923E0,5.213766E0,1.3433993E0,1.5012074E0,3.2850647E-1,3.710587E0,0E0,1.4679928E0,0E0,0E0,6.7405915E-1,0E0,0E0,0E0,1.0876617E0,0E0,0E0,0E0,0E0,7.368021E-1,0E0,0E0,0E0,0E0,0E0,0E0],"parents":[2147483647,0,0,1,1,2,2,3,3,4,4,5,5,6,6,9,9,10,10,13,13,14,14,15,15,16,16,17,17,18,18,20,20,23,23,27,27,32,32],"right_children":[2,4,6,8,10,12,14,-1,-1,16,18,-1,-1,20,22,24,26,28,30,-1,32,-1,-1,34,-1,-1,-1,36,-1,-1,-1,-1,38,-1,-1,-1,-1,-1,-1],"split_conditions":[2.3092145E-1,-1.3584627E0,-7.517544E-2,-1.2416119E-1,-3.745978E-1,-1.2331979E-1,-1.7516029E-1,-1.3649857E-3,5.5255916E-2,-2.0533018E-2,-9.8044135E-2,6.3256393E-3,6.358885E-2,3.910441E-1,6.4823073E-1,5.1295346E-1,7.210189E-1,-1.2070926E0,-9.719388E-2,-9.8968465E-3,-2.1467881E0,-6.1130166E-2,2.650009E-2,-4.1687346E-1,-7.5969496E-3,-5.9404965E-2,1.1990065E-3,-3.326352E-2,-6.442874E-2,-4.1777086E-2,4.7456082E-2,-7.988426E-3,1.3261708E0,4.9490113E-2,2.0271654E-3,6.7881355E-3,-4.5004975E-2,5.681331E-2,9.919846E-3],"split_indices":[5,7,7,9,17,9,13,0,0,12,13,0,0,5,3,7,1,6,9,0,17,0,0,0,0,0,0,17,0,0,0,0,5,0,0,0,0,0,0],"split_type":[0,0,0,0,0,0,0,0,0,0,0,0,0,0,0,0,0,0,0,0,0,0,0,0,0,0,0,0,0,0,0,0,0,0,0,0,0,0,0],"sum_hessian":[8.203351E1,4.1346252E1,4.068726E1,3.4654744E0,3.7880775E1,2.5506245E1,1.5181015E1,1.2935737E0,2.1719005E0,1.2978778E1,2.4901999E1,1.4386575E0,2.4067587E1,9.418493E0,5.762521E0,5.8558683E0,7.12291E0,2.2202621E1,2.699377E0,1.3323337E0,8.08616E0,3.8587615E0,1.9037594E0,4.2559633E0,1.5999051E0,5.971346E0,1.151564E0,3.2216508E0,1.898097E1,1.5621473E0,1.1372297E0,1.0049261E0,7.081234E0,3.2407193E0,1.0152438E0,1.1691625E0,2.0524883E0,5.5651603E0,1.5160735E0],"tree_param":{"num_deleted":"0","num_feature":"18","num_nodes":"39","size_leaf_vector":"1"}},{"base_weights":[-4.9493667E-3,-7.6638174E-1,8.964085E-1,9.672487E-2,-1.0386299E0,1.152903E0,2.0164268E-1,-7.9671603E-1,7.1911246E-1,-5.600043E-1,-6.3231505E-2,-1.38953E-2,1.2371633E0,9.029398E-1,-5.408829E-2,1.1800698E-2,-5.5949744E-2,2.693105E-1,5.4669965E-2,5.3315E-2,-5.7366032E-2,1.8434877E-2,6.408783E-2,-1.7330458E-2,6.047819E-2,4.834739E-2,-2.2244142E-2,6.763513E-1,-4.8610676E-2,-5.580041E-3,5.149054E-2],"categories":[],"categories_nodes":[],"categories_segments":[],"categories_sizes":[],"default_left":[0,0,0,0,0,0,0,0,0,0,0,0,0,0,0,0,0,0,0,0,0,0,0,0,0,0,0,0,0,0,0],"id":16,"left_children":[1,3,5,7,9,11,13,15,17,19,-1,-1,21,23,-1,-1,-1,25,-1,27,-1,-1,-1,-1,-1,-1,-1,29,-1,-1,-1],"loss_changes":[5.3340275E1,9.999197E0,6.11014E0,6.698699E0,2.7650986E0,3.4522362E0,1.0705287E1,1.9274316E0,8.871627E-1,4.4174232E0,0E0,0E0,4.7750854E-1,3.3060622E0,0E0,0E0,0E0,2.679545E0,0E0,5.047993E0,0E0,0E0,0E0,0E0,0E0,0E0,0E0,1.4696689E0,0E0,0E0,0E0],"parents":[2147483647,0,0,1,1,2,2,3,3,4,4,5,5,6,6,7,7,8,8,9,9,12,12,13,13,17,17,19,19,27,27],"right_children":[2,4,6,8,10,12,14,16,18,20,-1,-1,22,24,-1,-1,-1,26,-1,28,-1,-1,-1,-1,-1,-1,-1,30,-1,-1,-1],"split_conditions":[2.8609464E-1,-1.8798651E-1,2.2364207E-2,-1.1763726E-1,-5.968829E-1,-4.8847923E-1,-5.185075E-1,-2.3793209E-1,-2.0337021E-2,-3.42324E-2,-6.3231505E-2,-1.38953E-2,-6.0315055E-1,-8.5964686E-1,-5.408829E-2,1.1800698E-2,-5.5949744E-2,-1.3584627E0,5.4669965E-2,-5.0464827E-1,-5.7366032E-2,1.8434877E-2,6.408783E-2,-1.7330458E-2,6.047819E-2,4.834739E-2,-2.2244142E-2,-6.4643085E-1,-4.8610676E-2,-5.580041E-3,5.149054E-2],"split_indices":[5,7,7,9,14,0,0,9,5,12,0,0,3,3,0,0,0,7,0,0,0,0,0,0,0,0,0,0,0,0,0],"split_type":[0,0,0,0,0,0,0,0,0,0,0,0,0,0,0,0,0,0,0,0,0,0,0,0,0,0,0,0,0,0,0],"sum_hessian":[7.571793E1,4.112601E1,3.4591923E1,1.0016255E1,3.1109756E1,2.4783066E1,9.808855E0,3.9975927E0,6.018663E0,1.1093569E1,2.0016188E1,1.2504926E0,2.3532574E1,6.53459E0,3.2742658E0,1.0144614E0,2.9831314E0,3.5145526E0,2.50411E0,5.871419E0,5.2221494E0,1.6019598E0,2.1930614E1,1.2618631E0,5.2727265E0,1.5988573E0,1.9156953E0,3.8642612E0,2.007158E0,1.4085351E0,2.455726E0],"tree_param":{"num_deleted":"0","num_feature":"18","num_nodes":"31","size_leaf_vector":"1"}},{"base_weights":[8.130547E-2,-9.124477E-1,6.98676E-1,6.3073146E-1,-1.1006767E0,1.1553767E0,-8.037115E-2,5.3262413E-2,-8.744199E-3,-6.260565E-2,-7.417185E-1,-1.138027E-2,1.2248187E0,9.2592007E-1,-1.0790712E0,-5.8864225E-2,4.0678173E-1,1.2552639E0,1.096475E-2,5.9070546E-2,-1.7470732E-2,-6.0368605E-2,-1.8605257E-3,4.4090252E-2,-7.655748E-3,5.202266E-1,6.555163E-2,-7.379596E-3,4.4686396E-2],"categories":[],"categories_nodes":[],"categories_segments":[],"categories_sizes":[],"default_left":[0,0,0,0,0,0,0,0,0,0,0,0,0,0,0,0,0,0,0,0,0,0,0,0,0,0,0,0,0],"id":17,"left_children":[1,3,5,7,9,11,13,-1,-1,-1,15,-1,17,19,21,-1,23,25,-1,-1,-1,-1,-1,-1,-1,27,-1,-1,-1],"loss_changes":[4.736024E1,9.296829E0,1.7007149E1,1.5358909E0,5.259743E-1,3.1632957E0,1.9595833E1,0E0,0E0,0E0,5.6780868E0,0E0,6.050415E-1,3.591467E0,1.2582493E0,0E0,1.0927541E0,4.5341492E-1,0E0,0E0,0E0,0E0,0E0,0E0,0E0,1.032661E0,0E0,0E0,0E0],"parents":[2147483647,0,0,1,1,2,2,3,3,4,4,5,5,6,6,10,10,12,12,13,13,14,14,16,16,17,17,25,25],"right_children":[2,4,6,8,10,12,14,-1,-1,-1,16,-1,18,20,22,-1,24,26,-1,-1,-1,-1,-1,-1,-1,28,-1,-1,-1],"split_conditions":[-7.7000507E-3,-1.3584627E0,-6.7006187E-3,-1.183616E-1,-3.6327288E-1,-4.8847923E-1,-5.185075E-1,5.3262413E-2,-8.744199E-3,-6.260565E-2,-4.350339E-2,-1.138027E-2,1.6918054E0,-1.0368068E-2,7.045657E-1,-5.8864225E-2,-2.0533018E-2,-1.4342348E-1,1.096475E-2,5.9070546E-2,-1.7470732E-2,-6.0368605E-2,-1.8605257E-3,4.4090252E-2,-7.655748E-3,5.807931E-1,6.555163E-2,-7.379596E-3,4.4686396E-2],"split_indices":[5,7,7,12,5,0,0,0,0,0,12,0,10,12,0,0,12,9,0,0,0,0,0,0,0,6,0,0,0],"split_type":[0,0,0,0,0,0,0,0,0,0,0,0,0,0,0,0,0,0,0,0,0,0,0,0,0,0,0,0,0],"sum_hessian":[7.5155945E1,2.8616043E1,4.6539898E1,2.8554008E0,2.5760643E1,2.903541E1,1.750449E1,1.6455684E0,1.2098324E0,1.6367413E1,9.3932295E0,1.2793198E0,2.775609E1,8.755406E0,8.749083E0,6.7922297E0,2.601E0,2.6699324E1,1.0567671E0,7.3555074E0,1.3998995E0,7.648357E0,1.100726E0,1.0961068E0,1.5048932E0,2.611235E0,2.4088089E1,1.1535448E0,1.4576901E0],"tree_param":{"num_deleted":"0","num_feature":"18","num_nodes":"29","size_leaf_vector":"1"}},{"base_weights":[3.6480818E-2,-7.902385E-1,7.222701E-1,7.688064E-2,-1.053491E0,1.1272204E0,-2.390865E-2,-7.607316E-1,9.341439E-1,-4.8886642E-1,-6.1058104E-2,-8.258357E-4,1.1759301E0,8.613039E-1,-5.8193494E-2,-5.3690087E-2,1.0743807E-2,4.1022543E-3,5.731193E-2,4.303756E-1,-5.318873E-2,2.0973256E-2,1.2051307E0,-1.01867E-2,6.0038496E-2,3.8686037E-2,-5.3331656E-3,6.177603E-2,1.7422553E-2],"categories":[],"categories_nodes":[],"categories_segments":[],"categories_sizes":[],"default_left":[0,0,0,0,0,0,0,0,0,0,0,0,0,0,0,0,0,0,0,0,0,0,0,0,0,0,0,0,0],"id":18,"left_children":[1,3,5,7,9,11,13,15,17,19,-1,-1,21,23,-1,-1,-1,-1,-1,25,-1,-1,27,-1,-1,-1,-1,-1,-1],"loss_changes":[4.092647E1,7.557165E0,1.1940861E1,6.8567705E0,1.7879543E0,1.4444504E0,1.5987278E1,1.7214019E0,7.515607E-1,4.387418E0,0E0,0E0,3.673172E-2,3.4744802E0,0E0,0E0,0E0,0E0,0E0,7.4135166E-1,0E0,0E0,1.7091751E-1,0E0,0E0,0E0,0E0,0E0,0E0],"parents":[2147483647,0,0,1,1,2,2,3,3,4,4,5,5,6,6,7,7,8,8,9,9,12,12,13,13,19,19,22,22],"right_children":[2,4,6,8,10,12,14,16,18,20,-1,-1,22,24,-1,-1,-1,-1,-1,26,-1,-1,28,-1,-1,-1,-1,-1,-1],"split_conditions":[1.4844401E-1,-1.8798651E-1,-6.7006187E-3,-1.03678234E-1,-7.130453E-1,-4.8847923E-1,-5.185075E-1,3.5837504E-1,-6.261951E-1,5.5025756E-1,-6.1058104E-2,-8.258357E-4,-9.196622E-1,-6.4666104E-1,-5.8193494E-2,-5.3690087E-2,1.0743807E-2,4.1022543E-3,5.731193E-2,5.125478E-1,-5.318873E-2,2.0973256E-2,9.1632783E-1,-1.01867E-2,6.0038496E-2,3.8686037E-2,-5.3331656E-3,6.177603E-2,1.7422553E-2],"split_indices":[5,7,7,9,14,0,0,15,14,16,0,0,15,0,0,0,0,0,0,7,0,0,17,0,0,0,0,0,0],"split_type":[0,0,0,0,0,0,0,0,0,0,0,0,0,0,0,0,0,0,0,0,0,0,0,0,0,0,0,0,0],"sum_hessian":[7.017971E1,3.1751251E1,3.8428455E1,7.559434E0,2.4191818E1,2.4578875E1,1.3849583E1,3.8804955E0,3.6789386E0,6.4356585E0,1.7756159E1,1.0310102E0,2.3547865E1,7.9334645E0,5.9161177E0,2.8615742E0,1.0189214E0,1.0096123E0,2.6693263E0,2.572998E0,3.8626604E0,1.4462587E0,2.2101606E1,2.0141444E0,5.91932E0,1.300703E0,1.2722949E0,2.091736E1,1.1842444E0],"tree_param":{"num_deleted":"0","num_feature":"18","num_nodes":"29","size_leaf_vector":"1"}},{"base_weights":[2.325317E-2,-9.1851693E-1,6.3892627E-1,3.5795072E-1,-1.0877483E0,6.114918E-2,1.3642211E-1,-1.3976745E-2,4.529695E-2,-3.9253777E-1,-6.2196106E-2,7.179463E-1,-3.5182235E-1,-5.0361365E-2,4.5102337E-1,-1.532375E-1,1.0579251E0,3.92231E-1,-5.7452478E-2,-3.6334458E-3,4.0895246E-2,3.7292488E-2,-5.178507E-2,4.9213076E-1,5.9982635E-2,-8.1763834E-1,5.520404E-2,3.328009E-3,3.8082346E-2,4.7489465E-3,-5.9843313E-2],"categories":[],"categories_nodes":[],"categories_segments":[],"categories_sizes":[],"default_left":[0,0,0,0,0,0,0,0,0,0,0,0,0,0,0,0,0,0,0,0,0,0,0,0,0,0,0,0,0,0,0],"id":19,"left_children":[1,3,5,7,9,-1,11,-1,-1,13,-1,15,17,-1,19,21,23,25,-1,-1,-1,-1,-1,27,-1,29,-1,-1,-1,-1,-1],"loss_changes":[4.4101753E1,6.8866997E0,1.3325222E1,1.7460384E0,2.4219742E0,0E0,7.5881605E0,0E0,0E0,3.7614253E0,0E0,3.7520347E0,9.179709E0,0E0,7.0868695E-1,4.1649313E0,1.1886597E-1,8.100319E0,0E0,0E0,0E0,0E0,0E0,3.4699965E-1,0E0,1.3839045E0,0E0,0E0,0E0,0E0,0E0],"parents":[2147483647,0,0,1,1,2,2,3,3,4,4,6,6,9,9,11,11,12,12,14,14,15,15,16,16,17,17,23,23,25,25],"right_children":[2,4,6,8,10,-1,12,-1,-1,14,-1,16,18,-1,20,22,24,26,-1,-1,-1,-1,-1,28,-1,30,-1,-1,-1,-1,-1],"split_conditions":[-8.2450986E-2,-1.3584627E0,-1.9488326E-1,-1.2416119E-1,-9.503646E-1,6.114918E-2,-5.68522E-1,-1.3976745E-2,4.529695E-2,-6.462315E-1,-6.2196106E-2,7.0121276E-1,1.05412165E-2,-5.0361365E-2,-3.2856482E-1,-5.968829E-1,-8.244595E-1,-1.7318274E-1,-5.7452478E-2,-3.6334458E-3,4.0895246E-2,3.7292488E-2,-5.178507E-2,8.577786E-2,5.9982635E-2,-3.745978E-1,5.520404E-2,3.328009E-3,3.8082346E-2,4.7489465E-3,-5.9843313E-2],"split_indices":[8,7,7,9,17,0,1,0,0,0,0,6,7,0,8,14,2,0,0,0,0,0,0,12,0,17,0,0,0,0,0],"split_type":[0,0,0,0,0,0,0,0,0,0,0,0,0,0,0,0,0,0,0,0,0,0,0,0,0,0,0,0,0,0,0],"sum_hessian":[7.4048645E1,2.907773E1,4.4970913E1,3.2732577E0,2.5804472E1,2.0134699E1,2.4836212E1,1.739524E0,1.5337338E0,5.37794E0,2.042653E1,1.1120574E1,1.3715639E1,2.9987679E0,2.3791726E0,3.2757785E0,7.844795E0,7.3571787E0,6.35846E0,1.3104889E0,1.0686836E0,1.6992892E0,1.5764894E0,2.4673178E0,5.377477E0,2.6702223E0,4.6869564E0,1.4401921E0,1.0271258E0,1.0038912E0,1.6663313E0],"tree_param":{"num_deleted":"0","num_feature":"18","num_nodes":"31","size_leaf_vector":"1"}},{"base_weights":[8.4974304E-2,-5.554844E-1,8.529704E-1,-8.971926E-1,-7.152912E-2,-1.1523971E-2,9.2977333E-1,-9.9880093E-1,1.9101E-2,-5.1445343E-2,3.249514E-1,1.0007201E0,-1.8831111E-2,-5.8925636E-2,-6.9749147E-1,-1.8000908E-1,9.25905E-1,1.48392115E-2,1.027901E0,-3.2255808E-1,-5.215424E-2,3.838908E-1,-7.134194E-1,5.7884533E-2,1.1673935E-2,5.537757E-2,6.474333E-1,2.2627907E-2,-3.6386017E-2,5.1870655E-2,-1.7237473E-2,-4.981422E-2,5.8997697E-3,3.1639312E-3,4.864921E-2],"categories":[],"categories_nodes":[],"categories_segments":[],"categories_sizes":[],"default_left":[0,0,0,0,0,0,0,0,0,0,0,0,0,0,0,0,0,0,0,0,0,0,0,0,0,0,0,0,0,0,0,0,0,0,0],"id":20,"left_children":[1,3,5,7,9,-1,11,13,-1,-1,15,17,-1,-1,19,21,23,-1,25,27,-1,29,31,-1,-1,-1,33,-1,-1,-1,-1,-1,-1,-1,-1],"loss_changes":[3.5816795E1,6.5153E0,2.9659786E0,3.401434E0,6.996927E0,0E0,3.2573452E0,3.5847473E-1,0E0,0E0,4.1638618E0,2.6417542E-1,0E0,0E0,1.0363641E0,2.6786828E0,7.211056E-1,0E0,1.3869095E-1,2.3798711E0,0E0,2.5178819E0,1.1660767E0,0E0,0E0,0E0,1.3258212E0,0E0,0E0,0E0,0E0,0E0,0E0,0E0,0E0],"parents":[2147483647,0,0,1,1,2,2,3,3,4,4,6,6,7,7,10,10,11,11,14,14,15,15,16,16,18,18,19,19,21,21,22,22,26,26],"right_children":[2,4,6,8,10,-1,12,14,-1,-1,16,18,-1,-1,20,22,24,-1,26,28,-1,30,32,-1,-1,-1,34,-1,-1,-1,-1,-1,-1,-1,-1],"split_conditions":[2.8009194E-1,-2.1639971E-1,-8.244595E-1,1.5026629E-1,1.09089404E-1,-1.1523971E-2,1.5254298E0,-1.2401E-1,1.9101E-2,-5.1445343E-2,1.5250814E-1,-1.3092899E0,-1.8831111E-2,-5.8925636E-2,-5.7354018E-2,-4.1687346E-1,2.5376582E-1,1.48392115E-2,8.1951576E-1,-5.0464827E-1,-5.215424E-2,-8.203808E-1,-4.4190827E-1,5.7884533E-2,1.1673935E-2,5.537757E-2,1.4246818E-1,2.2627907E-2,-3.6386017E-2,5.1870655E-2,-1.7237473E-2,-4.981422E-2,5.8997697E-3,3.1639312E-3,4.864921E-2],"split_indices":[5,5,2,9,11,0,14,9,0,0,0,11,0,0,9,0,10,0,16,0,0,14,14,0,0,0,1,0,0,0,0,0,0,0,0],"split_type":[0,0,0,0,0,0,0,0,0,0,0,0,0,0,0,0,0,0,0,0,0,0,0,0,0,0,0,0,0,0,0,0,0,0,0],"sum_hessian":[7.085435E1,3.8786034E1,3.2068317E1,2.2233597E1,1.6552437E1,1.990311E0,3.0078005E1,2.0800604E1,1.4329933E0,4.380291E0,1.2172146E1,2.8750622E1,1.3273835E0,1.1205775E1,9.594829E0,6.9949727E0,5.1771727E0,1.5119814E0,2.723864E1,5.529372E0,4.065457E0,3.536566E0,3.4584067E0,3.3753579E0,1.8018149E0,2.0943193E1,6.295446E0,1.857949E0,3.6714234E0,1.6409874E0,1.8955785E0,2.4325137E0,1.0258931E0,2.6803372E0,3.6151085E0],"tree_param":{"num_deleted":"0","num_feature":"18","num_nodes":"35","size_leaf_vector":"1"}},{"base_weights":[1.999651E-2,-8.061733E-1,5.898459E-1,3.52318E-1,-9.295228E-1,1.1647321E0,1.0003118E-1,-1.2028205E-2,4.460928E-2,-1.123653E0,-3.0525574E-1,1.417355E-2,6.0195297E-2,7.083E-1,-3.1918648E-1,-4.3078497E-1,-5.9973247E-2,-5.1243592E-2,5.7067144E-1,-1.7551899E-1,1.0987713E0,4.1767535E-1,-5.63156E-2,-3.9441504E-2,9.989984E-3,-4.3311706E-3,4.359659E-2,3.4941897E-2,-5.2302677E-2,6.0741015E-2,9.600706E-3,-5.0901043E-1,5.2931376E-2,1.4443576E-2,-5.5318117E-2],"categories":[],"categories_nodes":[],"categories_segments":[],"categories_sizes":[],"default_left":[0,0,0,0,0,0,0,0,0,0,0,0,0,0,0,0,0,0,0,0,0,0,0,0,0,0,0,0,0,0,0,0,0,0,0],"id":21,"left_children":[1,3,5,7,9,11,13,-1,-1,15,17,-1,-1,19,21,23,-1,-1,25,27,29,31,-1,-1,-1,-1,-1,-1,-1,-1,-1,33,-1,-1,-1],"loss_changes":[3.402824E1,4.5450325E0,1.192264E1,1.3557819E0,2.922905E0,3.345127E-1,6.39173E0,0E0,0E0,5.434704E-1,5.479683E0,0E0,0E0,3.7046113E0,9.39357E0,9.5935035E-1,0E0,0E0,8.962482E-1,3.76072E0,5.2390766E-1,5.6306343E0,0E0,0E0,0E0,0E0,0E0,0E0,0E0,0E0,0E0,2.3120103E0,0E0,0E0,0E0],"parents":[2147483647,0,0,1,1,2,2,3,3,4,4,5,5,6,6,9,9,10,10,13,13,14,14,15,15,18,18,19,19,20,20,21,21,31,31],"right_children":[2,4,6,8,10,12,14,-1,-1,16,18,-1,-1,20,22,24,-1,-1,26,28,30,32,-1,-1,-1,-1,-1,-1,-1,-1,-1,34,-1,-1,-1],"split_conditions":[-8.2450986E-2,-2.3891482E0,-1.9488326E-1,6.7956483E-1,-2.7276343E-1,-2.6788718E-1,-5.185075E-1,-1.2028205E-2,4.460928E-2,-1.2050949E0,-1.2625712E-1,1.417355E-2,6.0195297E-2,7.0121276E-1,1.05412165E-2,2.5887707E-1,-5.9973247E-2,-5.1243592E-2,-1.0157694E-1,-2.923406E-2,4.1383702E-1,-1.7318274E-1,-5.63156E-2,-3.9441504E-2,9.989984E-3,-4.3311706E-3,4.359659E-2,3.4941897E-2,-5.2302677E-2,6.0741015E-2,9.600706E-3,-7.817868E-1,5.2931376E-2,1.4443576E-2,-5.5318117E-2],"split_indices":[8,6,7,15,8,0,0,0,0,17,12,0,0,6,7,6,0,0,0,9,15,0,0,0,0,0,0,0,0,0,0,4,0,0,0],"split_type":[0,0,0,0,0,0,0,0,0,0,0,0,0,0,0,0,0,0,0,0,0,0,0,0,0,0,0,0,0,0,0,0,0,0,0],"sum_hessian":[7.0268616E1,2.851408E1,4.1754536E1,2.5652394E0,2.5948841E1,1.8575235E1,2.3179302E1,1.4868184E0,1.0784209E0,1.918337E1,6.7654696E0,1.1411018E0,1.7434134E1,9.175879E0,1.4003425E1,2.5510252E0,1.6632347E1,3.620782E0,3.1446877E0,2.98038E0,6.195498E0,7.5725827E0,6.4308414E0,1.467073E0,1.0839523E0,1.2122483E0,1.9324393E0,1.5853251E0,1.3950549E0,5.1913543E0,1.0041437E0,3.1803293E0,4.3922534E0,1.5827141E0,1.5976152E0],"tree_param":{"num_deleted":"0","num_feature":"18","num_nodes":"35","size_leaf_vector":"1"}},{"base_weights":[5.0237212E-2,-6.35471E-1,6.890385E-1,5.522755E-2,-9.387966E-1,5.9064236E-2,2.1957706E-1,-6.790553E-1,8.425192E-1,-1.9678162E-1,-1.0977817E0,-1.9807927E-1,8.184871E-1,-5.2985825E-2,1.862059E-2,1.2357329E-2,5.101585E-2,4.3409914E-2,-4.7939893E-2,-5.867244E-2,-4.0621763E-1,3.05626E-1,-9.833344E-1,1.0916052E0,-2.5356427E-2,9.807459E-3,-3.648404E-2,-3.9230026E-2,5.626055E-1,-5.720337E-2,-1.1316484E-2,5.8341336E-2,1.7516842E-2,4.9803607E-2,6.559661E-3],"categories":[],"categories_nodes":[],"categories_segments":[],"categories_sizes":[],"default_left":[0,0,0,0,0,0,0,0,0,0,0,0,0,0,0,0,0,0,0,0,0,0,0,0,0,0,0,0,0,0,0,0,0,0,0],"id":22,"left_children":[1,3,5,7,9,-1,11,13,15,17,19,21,23,-1,-1,-1,-1,-1,-1,-1,25,27,29,31,-1,-1,-1,-1,33,-1,-1,-1,-1,-1,-1],"loss_changes":[3.1808662E1,7.397341E0,8.419638E0,7.3030186E0,2.6645126E0,0E0,5.2778616E0,3.0275762E0,3.8985872E-1,5.317763E0,5.6417656E-1,5.3848515E0,3.6662688E0,0E0,0E0,0E0,0E0,0E0,0E0,0E0,8.233542E-1,2.8491318E0,3.811183E-1,6.3943863E-3,0E0,0E0,0E0,0E0,1.2787604E0,0E0,0E0,0E0,0E0,0E0,0E0],"parents":[2147483647,0,0,1,1,2,2,3,3,4,4,6,6,7,7,8,8,9,9,10,10,11,11,12,12,20,20,21,21,22,22,23,23,28,28],"right_children":[2,4,6,8,10,-1,12,14,16,18,20,22,24,-1,-1,-1,-1,-1,-1,-1,26,28,30,32,-1,-1,-1,-1,34,-1,-1,-1,-1,-1,-1],"split_conditions":[1.4278713E-1,-1.0079194E-1,-1.9488326E-1,-1.03678234E-1,-1.2050949E0,5.9064236E-2,8.8119686E-1,-1.7072056E-1,-5.2378286E-2,-2.0533018E-2,7.638299E-1,-6.601576E-2,5.129168E-1,-5.2985825E-2,1.862059E-2,1.2357329E-2,5.101585E-2,4.3409914E-2,-4.7939893E-2,-5.867244E-2,-6.68966E-2,-3.743667E-1,6.4823073E-1,5.268389E-1,-2.5356427E-2,9.807459E-3,-3.648404E-2,-3.9230026E-2,-4.6307072E-1,-5.720337E-2,-1.1316484E-2,5.8341336E-2,1.7516842E-2,4.9803607E-2,6.559661E-3],"split_indices":[8,7,7,9,17,0,8,6,9,12,6,14,7,0,0,0,0,0,0,0,8,15,3,16,0,0,0,0,0,0,0,0,0,0,0],"split_type":[0,0,0,0,0,0,0,0,0,0,0,0,0,0,0,0,0,0,0,0,0,0,0,0,0,0,0,0,0,0,0,0,0,0,0],"sum_hessian":[7.061771E1,3.406092E1,3.655679E1,1.06432495E1,2.3417673E1,1.7105179E1,1.9451609E1,5.578155E0,5.0650945E0,4.5269995E0,1.8890673E1,1.1854214E1,7.5973954E0,4.089715E0,1.4884398E0,1.7143784E0,3.350716E0,1.8300339E0,2.6969655E0,1.6399523E1,2.4911506E0,7.59388E0,4.2603335E0,6.445874E0,1.1515212E0,1.0078626E0,1.483288E0,1.0568913E0,6.536989E0,3.0924194E0,1.167914E0,5.330825E0,1.1150497E0,2.6078534E0,3.9291358E0],"tree_param":{"num_deleted":"0","num_feature":"18","num_nodes":"35","size_leaf_vector":"1"}},{"base_weights":[1.0554345E-1,-7.47348E-1,6.160092E-1,2.6209692E-2,-8.8305897E-1,-7.0642956E-2,8.47775E-1,-1.0922114E0,-2.1981105E-1,-8.568675E-1,4.7204833E-2,9.150502E-1,-3.0999094E-2,-1.2542306E-2,-5.838866E-2,-4.718866E-2,4.8527882E-1,-5.2244395E-2,-9.261734E-3,1.0582867E0,3.0318308E-1,-8.995479E-3,4.1263312E-2,1.103625E0,1.5138312E-2,-2.0076906E-2,6.155827E-1,5.69187E-2,1.1173686E-2,-3.8092937E-3,4.871261E-2],"categories":[],"categories_nodes":[],"categories_segments":[],"categories_sizes":[],"default_left":[0,0,0,0,0,0,0,0,0,0,0,0,0,0,0,0,0,0,0,0,0,0,0,0,0,0,0,0,0,0,0],"id":23,"left_children":[1,3,5,-1,7,9,11,13,15,17,-1,19,-1,-1,-1,-1,21,-1,-1,23,25,-1,-1,27,-1,-1,29,-1,-1,-1,-1],"loss_changes":[3.079986E1,5.0433283E0,7.0848675E0,0E0,3.1386356E0,1.0432695E1,3.8337631E0,8.682785E-1,4.077781E0,7.309284E-1,0E0,2.4866714E0,0E0,0E0,0E0,0E0,1.1102836E0,0E0,0E0,5.4125786E-1,1.8935201E0,0E0,0E0,4.7140503E-1,0E0,0E0,1.4577341E0,0E0,0E0,0E0,0E0],"parents":[2147483647,0,0,1,1,2,2,4,4,5,5,6,6,7,7,8,8,9,9,11,11,16,16,19,19,20,20,23,23,26,26],"right_children":[2,4,6,-1,8,10,12,14,16,18,-1,20,-1,-1,-1,-1,22,-1,-1,24,26,-1,-1,28,-1,-1,30,-1,-1,-1,-1],"split_conditions":[-1.5680144E-2,-2.3891482E0,-7.6880835E-2,2.6209692E-2,-2.1639971E-1,5.4022217E-1,2.0888549E-1,-1.6976823E0,-1.4211893E-1,1.8946598E-1,4.7204833E-2,-1.0368068E-2,-3.0999094E-2,-1.2542306E-2,-5.838866E-2,-4.718866E-2,-1.6074625E-1,-5.2244395E-2,-9.261734E-3,1.1686405E0,6.568212E-1,-8.995479E-3,4.1263312E-2,1.1042261E0,1.5138312E-2,-2.0076906E-2,3.2827523E-2,5.69187E-2,1.1173686E-2,-3.8092937E-3,4.871261E-2],"split_indices":[5,6,11,0,5,5,9,17,12,0,0,12,0,0,0,0,13,0,0,6,6,0,0,11,0,0,9,0,0,0,0],"split_type":[0,0,0,0,0,0,0,0,0,0,0,0,0,0,0,0,0,0,0,0,0,0,0,0,0,0,0,0,0,0,0],"sum_hessian":[6.868637E1,2.5543678E1,4.3142696E1,2.1872926E0,2.3356386E1,1.1062636E1,3.208006E1,1.7265135E1,6.09125E0,6.3208184E0,4.741818E0,3.103416E1,1.045898E0,1.7787602E0,1.5486375E1,2.838382E0,3.2528682E0,4.5041585E0,1.8166599E0,2.4556051E1,6.478109E0,1.2594932E0,1.993375E0,2.2731215E1,1.8248372E0,1.9020555E0,4.576053E0,2.1585617E1,1.1455971E0,1.8314023E0,2.744651E0],"tree_param":{"num_deleted":"0","num_feature":"18","num_nodes":"31","size_leaf_vector":"1"}},{"base_weights":[1.5650615E-2,-6.7902786E-1,5.701022E-1,-8.632628E-2,-9.4199216E-1,9.4470066E-1,-1.6537584E-1,-8.045433E-1,6.716351E-1,5.0555035E-3,-1.0112542E0,-2.1635499E-2,1.0520086E0,6.6002053E-1,-5.546648E-2,-5.263933E-2,5.4161795E-3,-9.121465E-3,4.937024E-2,-2.2273776E-1,-5.6999274E-2,4.4007823E-1,5.7999622E-2,1.3980462E-1,4.659611E-2,-4.2926632E-2,3.9885145E-2,4.929104E-2,-2.6640175E-2,-2.9511759E-2,4.1183732E-2],"categories":[],"categories_nodes":[],"categories_segments":[],"categories_sizes":[],"default_left":[0,0,0,0,0,0,0,0,0,0,0,0,0,0,0,0,0,0,0,0,0,0,0,0,0,0,0,0,0,0,0],"id":24,"left_children":[1,3,5,7,9,11,13,15,17,-1,19,-1,21,23,-1,-1,-1,-1,-1,25,-1,27,-1,29,-1,-1,-1,-1,-1,-1,-1],"loss_changes":[2.609277E1,4.606924E0,1.0531699E1,6.1720324E0,1.6002846E0,4.1651764E0,1.1296682E1,1.4208732E0,1.6845315E0,0E0,1.7289829E0,0E0,1.047472E0,9.816146E-1,0E0,0E0,0E0,0E0,0E0,3.2699168E0,0E0,3.2584317E0,0E0,2.4206707E0,0E0,0E0,0E0,0E0,0E0,0E0,0E0],"parents":[2147483647,0,0,1,1,2,2,3,3,4,4,5,5,6,6,7,7,8,8,10,10,12,12,13,13,19,19,21,21,23,23],"right_children":[2,4,6,8,10,12,14,16,18,-1,20,-1,22,24,-1,-1,-1,-1,-1,26,-1,28,-1,30,-1,-1,-1,-1,-1,-1,-1],"split_conditions":[1.4844401E-1,-1.0079194E-1,1.05412165E-2,-1.03678234E-1,-2.6722505E0,-1.1535923E0,-5.589301E-1,1.3181385E0,-5.138816E-1,5.0555035E-3,-1.6048509E0,-2.1635499E-2,-1.0382255E-1,-6.466415E-1,-5.546648E-2,-5.263933E-2,5.4161795E-3,-9.121465E-3,4.937024E-2,-1.8344092E0,-5.6999274E-2,2.6264495E-1,5.7999622E-2,2.356337E0,4.659611E-2,-4.2926632E-2,3.9885145E-2,4.929104E-2,-2.6640175E-2,-2.9511759E-2,4.1183732E-2],"split_indices":[5,7,7,9,6,6,0,16,14,0,17,0,1,0,0,0,0,0,0,17,0,6,0,5,0,0,0,0,0,0,0],"split_type":[0,0,0,0,0,0,0,0,0,0,0,0,0,0,0,0,0,0,0,0,0,0,0,0,0,0,0,0,0,0,0],"sum_hessian":[6.5739235E1,2.9079956E1,3.665928E1,9.3450985E0,1.9734858E1,2.4100025E1,1.2559253E1,4.7667966E0,4.5783024E0,1.2001712E0,1.8534687E1,1.5226604E0,2.2577366E1,6.860873E0,5.698379E0,3.6271586E0,1.1396377E0,1.3497894E0,3.228513E0,2.9844313E0,1.5550256E1,4.14779E0,1.8429575E1,2.874812E0,3.9860613E0,1.9365258E0,1.0479054E0,2.648693E0,1.4990966E0,1.4566929E0,1.418119E0],"tree_param":{"num_deleted":"0","num_feature":"18","num_nodes":"31","size_leaf_vector":"1"}},{"base_weights":[2.6665067E-2,-7.205432E-1,4.9868724E-1,3.571378E-1,-8.867859E-1,1.085364E0,3.4065012E-2,4.284391E-2,-1.204419E-2,-4.75775E-1,-5.6753773E-2,5.6290794E-2,1.110056E-2,5.6950605E-1,-3.2417822E-1,-5.3264152E-2,8.196018E-1,8.610449E-1,-2.8732855E-2,3.0294153E-1,-5.4124087E-2,5.1668763E-2,8.640456E-3,9.9714595E-1,1.525117E-2,-6.0479754E-1,5.0827272E-2,9.743362E-3,5.59355E-2,1.2179016E-2,-5.6526907E-2],"categories":[],"categories_nodes":[],"categories_segments":[],"categories_sizes":[],"default_left":[0,0,0,0,0,0,0,0,0,0,0,0,0,0,0,0,0,0,0,0,0,0,0,0,0,0,0,0,0,0,0],"id":25,"left_children":[1,3,5,7,9,11,13,-1,-1,15,-1,-1,-1,17,19,-1,21,23,-1,25,-1,-1,-1,27,-1,29,-1,-1,-1,-1,-1],"loss_changes":[2.3240734E1,4.8897285E0,1.0961727E1,1.4389458E0,1.745985E0,3.7171745E-1,4.701869E0,0E0,0E0,8.6299515E0,0E0,0E0,0E0,3.7647312E0,7.340709E0,0E0,3.3882928E-1,3.173313E-1,0E0,6.349408E0,0E0,0E0,0E0,3.824706E-1,0E0,2.2929397E0,0E0,0E0,0E0,0E0,0E0],"parents":[2147483647,0,0,1,1,2,2,3,3,4,4,5,5,6,6,9,9,13,13,14,14,16,16,17,17,19,19,23,23,25,25],"right_children":[2,4,6,8,10,12,14,-1,-1,16,-1,-1,-1,18,20,-1,22,24,-1,26,-1,-1,-1,28,-1,30,-1,-1,-1,-1,-1],"split_conditions":[-7.439008E-2,-1.3584627E0,-1.9488326E-1,4.1866425E-1,-5.0464827E-1,2.0888549E-1,-5.7665426E-1,4.284391E-2,-1.204419E-2,-6.463972E-1,-5.6753773E-2,5.6290794E-2,1.110056E-2,5.572244E-2,1.05412165E-2,-5.3264152E-2,-7.130453E-1,-1.0368068E-2,-2.8732855E-2,-1.7318274E-1,-5.4124087E-2,5.1668763E-2,8.640456E-3,-8.5959446E-1,1.525117E-2,-1.1523497E0,5.0827272E-2,9.743362E-3,5.59355E-2,1.2179016E-2,-5.6526907E-2],"split_indices":[8,7,7,4,0,9,1,0,0,0,0,0,0,9,7,0,14,12,0,0,0,0,0,3,0,10,0,0,0,0,0],"split_type":[0,0,0,0,0,0,0,0,0,0,0,0,0,0,0,0,0,0,0,0,0,0,0,0,0,0,0,0,0,0,0],"sum_hessian":[6.387519E1,2.4525293E1,3.9349895E1,3.1241915E0,2.1401102E1,1.6800259E1,2.2549639E1,1.4661441E0,1.6580474E0,9.157787E0,1.2243315E1,1.5757926E1,1.0423329E0,8.802876E0,1.3746761E1,6.4157124E0,2.7420752E0,7.212531E0,1.5903456E0,7.852893E0,5.893869E0,1.6116964E0,1.1303787E0,5.156887E0,2.0556438E0,3.5234132E0,4.3294797E0,1.0210865E0,4.135801E0,1.5534042E0,1.970009E0],"tree_param":{"num_deleted":"0","num_feature":"18","num_nodes":"31","size_leaf_vector":"1"}},{"base_weights":[1.0743458E-2,-5.091565E-1,6.2106055E-1,4.290483E-1,-6.489148E-1,9.31596E-1,5.382572E-2,-1.731622E-2,4.2478915E-2,-1.7828059E-1,-9.4507134E-1,-6.7852656E-3,1.0021999E0,5.6411314E-1,-7.6011765E-1,-4.9319636E-2,3.318307E-1,-1.0212803E0,8.043437E-3,1.0450872E0,1.1819841E-2,-2.270114E-2,8.148746E-1,-3.4693123E-3,-4.664358E-2,-4.0741622E-2,6.942552E-1,7.2208694E-3,-5.6001592E-2,5.596233E-2,5.058653E-1,5.1564574E-2,2.0949885E-3,5.2014094E-2,7.000475E-4,3.912342E-2,-1.5097627E-3],"categories":[],"categories_nodes":[],"categories_segments":[],"categories_sizes":[],"default_left":[0,0,0,0,0,0,0,0,0,0,0,0,0,0,0,0,0,0,0,0,0,0,0,0,0,0,0,0,0,0,0,0,0,0,0,0,0],"id":26,"left_children":[1,3,5,7,9,11,13,-1,-1,15,17,-1,19,21,23,-1,25,27,-1,29,-1,-1,31,-1,-1,-1,33,-1,-1,-1,35,-1,-1,-1,-1,-1,-1],"loss_changes":[1.9431068E1,4.6159143E0,4.9104185E0,1.8889613E0,3.899928E0,1.5027542E0,5.0076623E0,0E0,0E0,5.482695E0,1.6546545E0,0E0,3.155899E-1,2.2465217E0,4.9302197E-1,0E0,4.0627728E0,2.0817528E0,0E0,7.0840836E-2,0E0,0E0,1.0032177E0,0E0,0E0,0E0,1.6175907E0,0E0,0E0,0E0,5.797715E-1,0E0,0E0,0E0,0E0,0E0,0E0],"parents":[2147483647,0,0,1,1,2,2,3,3,4,4,5,5,6,6,9,9,10,10,12,12,13,13,14,14,16,16,17,17,19,19,22,22,26,26,30,30],"right_children":[2,4,6,8,10,12,14,-1,-1,16,18,-1,20,22,24,-1,26,28,-1,30,-1,-1,32,-1,-1,-1,34,-1,-1,-1,36,-1,-1,-1,-1,-1,-1],"split_conditions":[2.8609464E-1,-7.160802E-1,-6.7006187E-3,-1.7188808E-1,-3.745978E-1,-6.3937986E-1,-5.185075E-1,-1.731622E-2,4.2478915E-2,-4.178018E-1,1.203421E0,-6.7852656E-3,1.6918054E0,6.188282E-1,2.3459177E-1,-4.9319636E-2,-1.8820883E0,-8.879172E-1,8.043437E-3,9.1632783E-1,1.1819841E-2,-2.270114E-2,9.1811144E-1,-3.4693123E-3,-4.664358E-2,-4.0741622E-2,-4.1687346E-1,7.2208694E-3,-5.6001592E-2,5.596233E-2,-5.845494E-1,5.1564574E-2,2.0949885E-3,5.2014094E-2,7.000475E-4,3.912342E-2,-1.5097627E-3],"split_indices":[5,7,7,13,17,3,0,0,0,5,3,0,10,6,10,0,17,14,0,17,0,0,10,0,0,0,0,0,0,0,7,0,0,0,0,0,0],"split_type":[0,0,0,0,0,0,0,0,0,0,0,0,0,0,0,0,0,0,0,0,0,0,0,0,0,0,0,0,0,0,0,0,0,0,0,0,0],"sum_hessian":[5.9241467E1,3.207989E1,2.7161575E1,3.890803E0,2.8189089E1,1.7137321E1,1.0024254E1,1.4302208E0,2.4605823E0,1.1506162E1,1.6682926E1,1.0061121E0,1.6131208E1,6.3501053E0,3.6741486E0,4.09122E0,7.414942E0,1.5679052E1,1.0038744E0,1.4930368E1,1.2008411E0,1.0947299E0,5.2553754E0,1.015494E0,2.6586547E0,1.480993E0,5.933949E0,1.1883948E0,1.4490658E1,1.2179628E1,2.75074E0,3.8447425E0,1.4106331E0,3.5824165E0,2.3515322E0,1.5112714E0,1.2394686E0],"tree_param":{"num_deleted":"0","num_feature":"18","num_nodes":"37","size_leaf_vector":"1"}},{"base_weights":[3.9043903E-2,-6.6188926E-1,5.1353985E-1,-8.9708316E-1,9.688899E-2,-9.56634E-2,7.0854175E-1,7.6731564E-3,-9.689076E-1,-4.4541225E-2,6.383121E-1,-4.6058666E-2,4.353627E-2,7.7876014E-1,-3.0456427E-2,-1.3112162E-1,-5.5432465E-2,5.0335478E-2,-8.13229E-3,-2.6823352E-3,8.389113E-1,3.4134105E-2,-3.8693447E-2,8.842723E-1,7.6499865E-3,8.047084E-3,4.8107494E-2],"categories":[],"categories_nodes":[],"categories_segments":[],"categories_sizes":[],"default_left":[0,0,0,0,0,0,0,0,0,0,0,0,0,0,0,0,0,0,0,0,0,0,0,0,0,0,0],"id":27,"left_children":[1,3,5,7,9,11,13,-1,15,-1,17,-1,-1,19,-1,21,-1,-1,-1,-1,23,-1,-1,25,-1,-1,-1],"loss_changes":[2.1263226E1,4.6969767E0,4.5912657E0,1.6440134E0,4.3200426E0,8.870726E0,3.1542244E0,0E0,2.0422668E0,0E0,1.672658E0,0E0,0E0,1.4438305E0,0E0,2.5187845E0,0E0,0E0,0E0,0E0,6.77227E-1,0E0,0E0,1.2131824E0,0E0,0E0,0E0],"parents":[2147483647,0,0,1,1,2,2,3,3,4,4,5,5,6,6,8,8,10,10,13,13,15,15,20,20,23,23],"right_children":[2,4,6,8,10,12,14,-1,16,-1,18,-1,-1,20,-1,22,-1,-1,-1,-1,24,-1,-1,26,-1,-1,-1],"split_conditions":[-7.7000507E-3,7.465775E-1,-7.6880835E-2,-1.6016359E0,-1.7188808E-1,5.7567304E-1,2.0888549E-1,7.6731564E-3,-1.2050949E0,-4.4541225E-2,1.3204489E0,-4.6058666E-2,4.353627E-2,-9.9080974E-1,-3.0456427E-2,2.095291E-3,-5.5432465E-2,5.0335478E-2,-8.13229E-3,-2.6823352E-3,1.1686405E0,3.4134105E-2,-3.8693447E-2,-9.739219E-1,7.6499865E-3,8.047084E-3,4.8107494E-2],"split_indices":[5,1,11,10,13,5,9,0,17,0,2,0,0,10,0,16,0,0,0,0,6,0,0,15,0,0,0],"split_type":[0,0,0,0,0,0,0,0,0,0,0,0,0,0,0,0,0,0,0,0,0,0,0,0,0,0,0],"sum_hessian":[6.1910255E1,2.483244E1,3.7077816E1,1.8817438E1,6.0150003E0,9.114071E0,2.7963745E1,1.1314557E0,1.7685984E1,1.9012421E0,4.113758E0,4.940542E0,4.1735287E0,2.6937252E1,1.0264932E0,2.8053756E0,1.4880608E1,2.6417937E0,1.4719646E0,1.8226388E0,2.5114613E1,1.2105397E0,1.594836E0,2.3285494E1,1.829119E0,2.5614285E0,2.0724066E1],"tree_param":{"num_deleted":"0","num_feature":"18","num_nodes":"27","size_leaf_vector":"1"}},{"base_weights":[6.368814E-2,-4.7923157E-1,7.012726E-1,1.9480474E-1,-7.9759747E-1,-1.2007605E-2,7.914039E-1,-5.8003616E-1,4.2399436E-2,-3.8218603E-1,-5.4274645E-2,-1.603434E-2,8.525885E-1,-4.5705497E-2,2.9049644E-3,-8.926519E-1,7.8717494E-1,9.849621E-1,4.5490965E-1,1.5662432E-3,-5.25338E-2,4.9752668E-2,8.057076E-3,4.898027E-1,5.4212462E-2,5.1155653E-2,-4.385123E-2,4.5931038E-2,-1.9221712E-2],"categories":[],"categories_nodes":[],"categories_segments":[],"categories_sizes":[],"default_left":[0,0,0,0,0,0,0,0,0,0,0,0,0,0,0,0,0,0,0,0,0,0,0,0,0,0,0,0,0],"id":28,"left_children":[1,3,5,7,9,-1,11,13,-1,15,-1,-1,17,-1,-1,19,21,23,25,-1,-1,-1,-1,27,-1,-1,-1,-1,-1],"loss_changes":[2.0140745E1,6.9137816E0,2.4571686E0,6.012165E0,2.1668663E0,0E0,1.9484062E0,1.243281E0,0E0,6.8987203E0,0E0,0E0,7.946205E-1,0E0,0E0,1.1563716E0,3.1930637E-1,2.9746437E-1,6.7653065E0,0E0,0E0,0E0,0E0,2.0921779E0,0E0,0E0,0E0,0E0,0E0],"parents":[2147483647,0,0,1,1,2,2,3,3,4,4,6,6,7,7,9,9,12,12,15,15,16,16,17,17,18,18,23,23],"right_children":[2,4,6,8,10,-1,12,14,-1,16,-1,-1,18,-1,-1,20,22,24,26,-1,-1,-1,-1,28,-1,-1,-1,-1,-1],"split_conditions":[2.8609464E-1,-1.0079194E-1,-1.0283499E0,-1.03678234E-1,-5.0464827E-1,-1.2007605E-2,-1.827337E0,-1.7072056E-1,4.2399436E-2,-6.463972E-1,-5.4274645E-2,-1.603434E-2,-6.7006187E-3,-4.5705497E-2,2.9049644E-3,-2.3484503E-1,-8.2170564E-1,1.5864496E-1,-1.7765777E-1,1.5662432E-3,-5.25338E-2,4.9752668E-2,8.057076E-3,2.6264495E-1,5.4212462E-2,5.1155653E-2,-4.385123E-2,4.5931038E-2,-1.9221712E-2],"split_indices":[5,7,10,9,0,0,15,6,0,0,0,0,7,0,0,13,14,3,13,0,0,0,0,6,0,0,0,0,0],"split_type":[0,0,0,0,0,0,0,0,0,0,0,0,0,0,0,0,0,0,0,0,0,0,0,0,0,0,0,0,0],"sum_hessian":[5.6212944E1,3.0494474E1,2.5718472E1,9.907236E0,2.0587238E1,2.1016967E0,2.3616774E1,4.5828304E0,5.3244057E0,9.380049E0,1.12071905E1,1.0104017E0,2.2606373E1,2.7241995E0,1.8586308E0,6.6943636E0,2.6856852E0,1.5852756E1,6.7536163E0,1.0947956E0,5.599568E0,1.573678E0,1.112007E0,3.6387892E0,1.2213966E1,4.8965898E0,1.8570269E0,2.407251E0,1.2315383E0],"tree_param":{"num_deleted":"0","num_feature":"18","num_nodes":"29","size_leaf_vector":"1"}},{"base_weights":[4.638928E-2,-5.098592E-1,6.647197E-1,7.967487E-2,-7.9767823E-1,9.084872E-1,1.0593236E-1,-5.8351094E-1,6.4829546E-1,-2.0024784E-1,-5.4656595E-2,2.747866E-1,5.4665096E-2,6.110187E-1,-4.5165606E-2,-4.7158774E-2,9.589034E-3,2.027605E-3,4.0972754E-2,4.1568154E-1,-4.63051E-2,-2.800168E-1,4.3730143E-2,4.884177E-2,-1.622372E-2,4.3335244E-2,-3.284445E-2,2.393899E-2,-5.2143455E-2,3.553647E-2,-3.4184474E-2],"categories":[],"categories_nodes":[],"categories_segments":[],"categories_sizes":[],"default_left":[0,0,0,0,0,0,0,0,0,0,0,0,0,0,0,0,0,0,0,0,0,0,0,0,0,0,0,0,0,0,0],"id":29,"left_children":[1,3,5,7,9,11,13,15,17,19,-1,21,-1,23,-1,-1,-1,-1,-1,25,-1,27,-1,-1,29,-1,-1,-1,-1,-1,-1],"loss_changes":[2.041874E1,5.3743753E0,3.7288818E0,4.593149E0,3.5094442E0,1.9740086E0,5.4769444E0,1.7663319E0,6.419952E-1,4.0570416E0,0E0,2.148619E0,0E0,1.6301916E0,0E0,0E0,0E0,0E0,0E0,3.0526474E0,0E0,2.6580157E0,0E0,0E0,2.2207448E0,0E0,0E0,0E0,0E0,0E0,0E0],"parents":[2147483647,0,0,1,1,2,2,3,3,4,4,5,5,6,6,7,7,8,8,9,9,11,11,13,13,19,19,21,21,24,24],"right_children":[2,4,6,8,10,12,14,16,18,20,-1,22,-1,24,-1,-1,-1,-1,-1,26,-1,28,-1,-1,30,-1,-1,-1,-1,-1,-1],"split_conditions":[2.8609464E-1,-1.5448806E-1,2.2364207E-2,-1.03678234E-1,-5.968829E-1,-2.1707018E-1,-5.185075E-1,-1.7072056E-1,-1.7765777E-1,-3.42324E-2,-5.4656595E-2,1.3337222E0,5.4665096E-2,1.3261708E0,-4.5165606E-2,-4.7158774E-2,9.589034E-3,2.027605E-3,4.0972754E-2,-5.0464827E-1,-4.63051E-2,4.278137E-1,4.3730143E-2,4.884177E-2,5.128354E-1,4.3335244E-2,-3.284445E-2,2.393899E-2,-5.2143455E-2,3.553647E-2,-3.4184474E-2],"split_indices":[5,7,7,9,14,0,0,6,13,12,0,5,0,5,0,0,0,0,0,0,0,5,0,0,7,0,0,0,0,0,0],"split_type":[0,0,0,0,0,0,0,0,0,0,0,0,0,0,0,0,0,0,0,0,0,0,0,0,0,0,0,0,0,0,0],"sum_hessian":[5.7380856E1,3.0299198E1,2.7081657E1,1.0177009E1,2.012219E1,1.8420158E1,8.661499E0,4.685774E0,5.491235E0,7.213564E0,1.2908627E1,4.72064E0,1.3699518E1,6.0355344E0,2.6259649E0,3.0529437E0,1.63283E0,1.4784764E0,4.0127583E0,4.1334295E0,3.0801342E0,2.7293112E0,1.9913291E0,3.4601672E0,2.575367E0,3.0449457E0,1.0884839E0,1.5549803E0,1.174331E0,1.2017233E0,1.3736438E0],"tree_param":{"num_deleted":"0","num_feature":"18","num_nodes":"31","size_leaf_vector":"1"}},{"base_weights":[5.7955816E-2,-6.100957E-1,5.556586E-1,-8.5805255E-1,3.8957804E-1,-2.9262263E-1,6.586618E-1,-1.0217437E0,-3.6303365E-1,-2.1011496E-2,8.6088246E-1,-5.0783195E-2,2.2353575E-2,7.6191366E-2,8.3322406E-1,-8.885468E-3,-5.4629724E-2,3.900991E-2,-4.835471E-2,1.5102553E-2,5.031029E-2,-4.8540547E-2,4.6251483E-2,9.486444E-1,3.802857E-1,5.0931823E-2,1.19347E-2,6.8737864E-1,-2.5822759E-2,1.1538196E-2,4.163171E-2],"categories":[],"categories_nodes":[],"categories_segments":[],"categories_sizes":[],"default_left":[0,0,0,0,0,0,0,0,0,0,0,0,0,0,0,0,0,0,0,0,0,0,0,0,0,0,0,0,0,0,0],"id":30,"left_children":[1,3,5,7,9,11,13,15,17,-1,19,-1,-1,21,23,-1,-1,-1,-1,-1,-1,-1,-1,25,27,-1,-1,29,-1,-1,-1],"loss_changes":[1.8856073E1,6.3461504E0,3.0270643E0,1.229064E0,2.4639664E0,2.7029018E0,2.9089127E0,6.60244E-1,5.2142725E0,0E0,5.4621696E-3,0E0,0E0,7.8670955E0,8.0986214E-1,0E0,0E0,0E0,0E0,0E0,0E0,0E0,0E0,6.1033154E-1,2.0668898E0,0E0,0E0,1.4344239E-1,0E0,0E0,0E0],"parents":[2147483647,0,0,1,1,2,2,3,3,4,4,5,5,6,6,7,7,8,8,10,10,13,13,14,14,23,23,24,24,27,27],"right_children":[2,4,6,8,10,12,14,16,18,-1,20,-1,-1,22,24,-1,-1,-1,-1,-1,-1,-1,-1,26,28,-1,-1,30,-1,-1,-1],"split_conditions":[1.4844401E-1,1.0091326E0,-9.5057184E-1,2.9491276E-1,-1.7188808E-1,-3.0480504E-1,-5.2225643E-1,-2.6443866E-1,-6.2706834E-1,-2.1011496E-2,-1.506889E-2,-5.0783195E-2,2.2353575E-2,5.7567304E-1,9.8722833E-1,-8.885468E-3,-5.4629724E-2,3.900991E-2,-4.835471E-2,1.5102553E-2,5.031029E-2,-4.8540547E-2,4.6251483E-2,3.4869945E-1,1.526304E0,5.0931823E-2,1.19347E-2,4.8656613E-2,-2.5822759E-2,1.1538196E-2,4.163171E-2],"split_indices":[5,1,15,6,13,1,11,9,15,0,11,0,0,5,6,0,0,0,0,0,0,0,0,13,5,0,0,9,0,0,0],"split_type":[0,0,0,0,0,0,0,0,0,0,0,0,0,0,0,0,0,0,0,0,0,0,0,0,0,0,0,0,0,0,0],"sum_hessian":[5.4691933E1,2.3253555E1,3.1438375E1,1.8745605E1,4.5079503E0,3.2047565E0,2.823362E1,1.3287643E1,5.4579616E0,1.6982832E0,2.8096673E0,1.431954E0,1.7728025E0,6.841551E0,2.1392069E1,1.3007103E0,1.1986933E1,1.7860787E0,3.6718829E0,1.2151937E0,1.5944736E0,2.9988794E0,3.8426714E0,1.6175669E1,5.2163997E0,1.4328281E1,1.847387E0,4.059631E0,1.1567687E0,1.6045043E0,2.4551265E0],"tree_param":{"num_deleted":"0","num_feature":"18","num_nodes":"31","size_leaf_vector":"1"}},{"base_weights":[-6.924538E-2,-8.3257055E-1,3.9055818E-1,3.690688E-1,-1.0431277E0,9.8850954E-1,-3.2822007E-1,3.820735E-2,-7.830682E-3,-1.4594475E-2,-5.528432E-2,-1.2597394E-4,1.0636933E0,3.8625962E-1,-5.2645862E-2,5.660324E-2,8.183912E-3,-3.8459E-2,6.330364E-1,1.13773204E-1,4.4052426E-2,1.939114E-2,-1.0163198E-2],"categories":[],"categories_nodes":[],"categories_segments":[],"categories_sizes":[],"default_left":[0,0,0,0,0,0,0,0,0,0,0,0,0,0,0,0,0,0,0,0,0,0,0],"id":31,"left_children":[1,3,5,7,9,11,13,-1,-1,-1,-1,-1,15,17,-1,-1,-1,-1,19,21,-1,-1,-1],"loss_changes":[1.8942707E1,5.5110464E0,1.4844833E1,9.0045017E-1,4.9972916E-1,1.3953781E0,8.739299E0,0E0,0E0,0E0,0E0,0E0,8.8393974E-1,3.0061445E0,0E0,0E0,0E0,0E0,9.0798354E-1,3.9846325E-1,0E0,0E0,0E0],"parents":[2147483647,0,0,1,1,2,2,3,3,4,4,5,5,6,6,12,12,13,13,18,18,19,19],"right_children":[2,4,6,8,10,12,14,-1,-1,-1,-1,-1,16,18,-1,-1,-1,-1,20,22,-1,-1,-1],"split_conditions":[2.5887707E-1,-1.3584627E0,1.05412165E-2,4.1866425E-1,-1.6976823E0,-1.0382255E-1,-5.185075E-1,3.820735E-2,-7.830682E-3,-1.4594475E-2,-5.528432E-2,-1.2597394E-4,1.3384079E0,-2.5195632E0,-5.2645862E-2,5.660324E-2,8.183912E-3,-3.8459E-2,7.0121276E-1,-1.2050949E0,4.4052426E-2,1.939114E-2,-1.0163198E-2],"split_indices":[6,7,7,4,17,1,0,0,0,0,0,0,2,17,0,0,0,0,6,17,0,0,0],"split_type":[0,0,0,0,0,0,0,0,0,0,0,0,0,0,0,0,0,0,0,0,0,0,0],"sum_hessian":[5.20445E1,1.9260015E1,3.2784485E1,2.7594047E0,1.6500612E1,1.7691591E1,1.5092892E1,1.3164184E0,1.4429862E0,1.7039942E0,1.47966175E1,1.3156703E0,1.6375921E1,7.8351827E0,7.257709E0,1.4980098E1,1.3958235E0,1.0063624E0,6.82882E0,2.67885E0,4.14997E0,1.3170815E0,1.3617686E0],"tree_param":{"num_deleted":"0","num_feature":"18","num_nodes":"23","size_leaf_vector":"1"}},{"base_weights":[5.6439307E-2,-5.0095975E-1,5.168712E-1,6.491514E-2,-7.5251013E-1,8.3561116E-1,-3.262949E-2,-6.635892E-1,7.595656E-1,-4.0380615E-3,-9.43859E-1,1.9068936E-1,5.3402003E-2,4.979905E-1,-4.877829E-2,8.996054E-3,-4.6891138E-2,3.3908784E-3,5.2184846E-2,4.2748265E-2,-4.020674E-2,-8.611569E-3,-5.2440263E-2,5.2128226E-1,-2.7119583E-2,7.539968E-1,-2.4886703E-2,4.230145E-2,1.1914152E-3,4.5757882E-2,1.3984553E-2],"categories":[],"categories_nodes":[],"categories_segments":[],"categories_sizes":[],"default_left":[0,0,0,0,0,0,0,0,0,0,0,0,0,0,0,0,0,0,0,0,0,0,0,0,0,0,0,0,0,0,0],"id":32,"left_children":[1,3,5,7,9,11,13,15,17,19,21,23,-1,25,-1,-1,-1,-1,-1,-1,-1,-1,-1,27,-1,29,-1,-1,-1,-1,-1],"loss_changes":[1.4391753E1,3.6670833E0,5.3954E0,4.9283705E0,2.5277061E0,2.709631E0,6.597005E0,1.2793238E0,9.004874E-1,3.8511634E0,9.589596E-1,1.8255777E0,0E0,2.5363998E0,0E0,0E0,0E0,0E0,0E0,0E0,0E0,0E0,0E0,7.7100456E-1,0E0,2.8993893E-1,0E0,0E0,0E0,0E0,0E0],"parents":[2147483647,0,0,1,1,2,2,3,3,4,4,5,5,6,6,7,7,8,8,9,9,10,10,11,11,13,13,23,23,25,25],"right_children":[2,4,6,8,10,12,14,16,18,20,22,24,-1,26,-1,-1,-1,-1,-1,-1,-1,-1,-1,28,-1,30,-1,-1,-1,-1,-1],"split_conditions":[1.4264415E-1,-1.0079194E-1,1.05412165E-2,-1.03678234E-1,-1.2050949E0,-1.0382255E-1,-5.9059525E-1,-2.3793209E-1,-6.1147947E-2,2.095291E-3,-8.879172E-1,2.6264495E-1,5.3402003E-2,5.572244E-2,-4.877829E-2,8.996054E-3,-4.6891138E-2,3.3908784E-3,5.2184846E-2,4.2748265E-2,-4.020674E-2,-8.611569E-3,-5.2440263E-2,-2.3527847E-1,-2.7119583E-2,9.849974E-1,-2.4886703E-2,4.230145E-2,1.1914152E-3,4.5757882E-2,1.3984553E-2],"split_indices":[5,7,7,9,17,1,1,9,12,16,14,6,0,9,0,0,0,0,0,0,0,0,0,7,0,6,0,0,0,0,0],"split_type":[0,0,0,0,0,0,0,0,0,0,0,0,0,0,0,0,0,0,0,0,0,0,0,0,0,0,0,0,0,0,0],"sum_hessian":[5.406774E1,2.441858E1,2.9649162E1,7.7427726E0,1.6675806E1,1.8435125E1,1.1214038E1,3.8011198E0,3.9416528E0,3.6031158E0,1.307269E1,5.3661237E0,1.3069001E1,7.477875E0,3.7361631E0,1.0169659E0,2.784154E0,1.5082765E0,2.4333763E0,1.704522E0,1.8985938E0,1.8813099E0,1.11913805E1,3.897437E0,1.4686865E0,6.141601E0,1.3362739E0,1.9341024E0,1.9633346E0,3.8902829E0,2.2513182E0],"tree_param":{"num_deleted":"0","num_feature":"18","num_nodes":"31","size_leaf_vector":"1"}},{"base_weights":[-2.4547225E-2,-5.2675706E-1,5.4328656E-1,2.0476104E-1,-7.266096E-1,9.527876E-1,1.9265537E-1,-2.4191043E-1,4.3304957E-2,-3.1837142E-1,-5.3675454E-2,5.1231887E-2,8.8752555E-3,5.408577E-1,-3.2406363E-1,1.887661E-2,-4.231296E-2,4.427034E-1,-4.97411E-2,4.6949033E-2,9.6669056E-2,-5.1433187E-2,2.3137958E-1,-3.2306127E-2,7.8796047E-1,-4.2598777E-2,5.5132866E-1,3.9633226E-2,-3.3231214E-2,5.8139134E-3,4.914851E-2,4.1031577E-2,-3.1090403E-4],"categories":[],"categories_nodes":[],"categories_segments":[],"categories_sizes":[],"default_left":[0,0,0,0,0,0,0,0,0,0,0,0,0,0,0,0,0,0,0,0,0,0,0,0,0,0,0,0,0,0,0,0,0],"id":33,"left_children":[1,3,5,7,9,11,13,15,-1,17,-1,-1,-1,19,21,-1,-1,23,-1,-1,25,-1,27,-1,29,-1,31,-1,-1,-1,-1,-1,-1],"loss_changes":[1.4708443E1,4.1465797E0,3.2952538E0,2.17332E0,2.7309866E0,4.2655277E-1,2.7492259E0,2.0975547E0,0E0,6.3038926E0,0E0,0E0,0E0,1.4868791E0,2.7367332E0,0E0,0E0,2.7839885E0,0E0,0E0,2.7692256E0,0E0,2.7328906E0,0E0,5.4652715E-1,0E0,6.374129E-1,0E0,0E0,0E0,0E0,0E0,0E0],"parents":[2147483647,0,0,1,1,2,2,3,3,4,4,5,5,6,6,7,7,9,9,13,13,14,14,17,17,20,20,22,22,24,24,26,26],"right_children":[2,4,6,8,10,12,14,16,-1,18,-1,-1,-1,20,22,-1,-1,24,-1,-1,26,-1,28,-1,30,-1,32,-1,-1,-1,-1,-1,-1],"split_conditions":[2.8009194E-1,-2.3183009E-1,-2.0719886E-1,-2.297022E-2,-4.1687346E-1,1.0908813E0,-5.3483135E-1,-1.3584627E0,4.3304957E-2,-2.0533018E-2,-5.3675454E-2,5.1231887E-2,8.8752555E-3,-2.424534E-2,3.1629154E-1,1.887661E-2,-4.231296E-2,-9.426296E-1,-4.97411E-2,4.6949033E-2,6.188282E-1,-5.1433187E-2,-6.7006187E-3,-3.2306127E-2,-4.292835E-1,-4.2598777E-2,-3.3495834E-1,3.9633226E-2,-3.3231214E-2,5.8139134E-3,4.914851E-2,4.1031577E-2,-3.1090403E-4],"split_indices":[5,7,7,5,0,6,1,7,0,12,0,0,0,9,3,0,0,15,0,0,6,0,7,0,5,0,15,0,0,0,0,0,0],"split_type":[0,0,0,0,0,0,0,0,0,0,0,0,0,0,0,0,0,0,0,0,0,0,0,0,0,0,0,0,0,0,0,0,0],"sum_hessian":[4.957396E1,2.634551E1,2.3228447E1,5.647922E0,2.0697588E1,9.922566E0,1.33058815E1,3.7496188E0,1.8983033E0,1.0389171E1,1.0308417E1,8.786625E0,1.1359408E0,7.9212556E0,5.3846254E0,2.0370252E0,1.7125936E0,5.0513945E0,5.3377767E0,3.5898116E0,4.3314443E0,1.9980528E0,3.3865728E0,1.0063324E0,4.045062E0,1.1202252E0,3.2112188E0,2.1531227E0,1.23345E0,1.2693259E0,2.7757363E0,1.8471556E0,1.3640633E0],"tree_param":{"num_deleted":"0","num_feature":"18","num_nodes":"33","size_leaf_vector":"1"}},{"base_weights":[1.6861867E-2,-6.6094303E-1,4.5068985E-1,4.0850794E-1,-8.5311526E-1,9.795225E-1,6.884886E-2,3.4558322E-2,-7.388379E-3,-1.0053216E-1,-9.6867603E-1,5.215019E-2,9.392037E-3,5.624165E-1,-4.7697335E-1,2.7789358E-2,-3.35489E-2,-5.3360112E-2,1.117857E-3,7.3740333E-1,-1.3463962E-2,1.8533769E-1,-4.8979267E-2,9.004428E-1,5.3574773E-3,-4.772183E-2,4.199693E-2,4.9906276E-2,1.1512387E-2],"categories":[],"categories_nodes":[],"categories_segments":[],"categories_sizes":[],"default_left":[0,0,0,0,0,0,0,0,0,0,0,0,0,0,0,0,0,0,0,0,0,0,0,0,0,0,0,0,0],"id":34,"left_children":[1,3,5,7,9,11,13,-1,-1,15,17,-1,-1,19,21,-1,-1,-1,-1,23,-1,25,-1,27,-1,-1,-1,-1,-1],"loss_changes":[1.4626932E1,4.3402643E0,6.0524592E0,6.7364085E-1,1.3626642E0,4.3892574E-1,5.299317E0,0E0,0E0,1.6273333E0,1.433589E0,0E0,0E0,1.6926167E0,3.313735E0,0E0,0E0,0E0,0E0,8.025198E-1,0E0,4.4579496E0,0E0,2.1638489E-1,0E0,0E0,0E0,0E0,0E0],"parents":[2147483647,0,0,1,1,2,2,3,3,4,4,5,5,6,6,9,9,10,10,13,13,14,14,19,19,21,21,23,23],"right_children":[2,4,6,8,10,12,14,-1,-1,16,18,-1,-1,20,22,-1,-1,-1,-1,24,-1,26,-1,28,-1,-1,-1,-1,-1],"split_conditions":[9.7586936E-4,-1.3584627E0,-1.9488326E-1,2.8089654E-1,-1.6048509E0,1.0479009E0,-6.0315055E-1,3.4558322E-2,-7.388379E-3,2.095291E-3,2.2061425E-1,5.215019E-2,9.392037E-3,-1.7765777E-1,-6.7006187E-3,2.7789358E-2,-3.35489E-2,-5.3360112E-2,1.117857E-3,5.093417E-1,-1.3463962E-2,-1.7318274E-1,-4.8979267E-2,5.129208E-1,5.3574773E-3,-4.772183E-2,4.199693E-2,4.9906276E-2,1.1512387E-2],"split_indices":[5,7,7,17,17,6,3,0,0,16,13,0,0,13,7,0,0,0,0,15,0,0,0,7,0,0,0,0,0],"split_type":[0,0,0,0,0,0,0,0,0,0,0,0,0,0,0,0,0,0,0,0,0,0,0,0,0,0,0,0,0],"sum_hessian":[4.7729866E1,1.8422842E1,2.9307026E1,2.6347196E0,1.5788122E1,1.1631984E1,1.7675041E1,1.586226E0,1.0484936E0,2.350509E0,1.34376135E1,1.047462E1,1.1573641E0,9.265855E0,8.409186E0,1.1049358E0,1.2455732E0,1.2152574E1,1.2850394E0,7.7488823E0,1.5169728E0,3.9005425E0,4.5086436E0,5.815723E0,1.9331596E0,1.2558482E0,2.6446943E0,4.6488366E0,1.1668863E0],"tree_param":{"num_deleted":"0","num_feature":"18","num_nodes":"29","size_leaf_vector":"1"}},{"base_weights":[3.2990955E-2,-6.2242913E-1,4.3146417E-1,2.3832858E-2,-7.784923E-1,9.818145E-1,-5.2321265E-3,-7.106338E-2,-9.1166264E-1,5.194171E-2,1.2769483E-2,4.1201317E-1,-4.3545604E-1,2.9479155E-2,-3.479382E-2,-5.845004E-4,-5.3024303E-2,-2.2355969E-1,7.9481566E-1,1.6745864E-1,-4.828474E-2,2.813981E-2,-4.7919463E-2,5.0813925E-2,3.665149E-3,-3.0340195E-2,4.0473536E-2],"categories":[],"categories_nodes":[],"categories_segments":[],"categories_sizes":[],"default_left":[0,0,0,0,0,0,0,0,0,0,0,0,0,0,0,0,0,0,0,0,0,0,0,0,0,0,0],"id":35,"left_children":[1,3,5,-1,7,9,11,13,15,-1,-1,17,19,-1,-1,-1,-1,21,23,25,-1,-1,-1,-1,-1,-1,-1],"loss_changes":[1.3179132E1,3.6472812E0,7.5357885E0,0E0,1.5466633E0,3.091221E-1,3.4941542E0,1.9765258E0,1.9043407E0,0E0,0E0,2.5834353E0,3.2235572E0,0E0,0E0,0E0,0E0,3.1381087E0,9.46661E-1,3.1425831E0,0E0,0E0,0E0,0E0,0E0,0E0,0E0],"parents":[2147483647,0,0,1,1,2,2,4,4,5,5,6,6,7,7,8,8,11,11,12,12,17,17,18,18,19,19],"right_children":[2,4,6,-1,8,10,12,14,16,-1,-1,18,20,-1,-1,-1,-1,22,24,26,-1,-1,-1,-1,-1,-1,-1],"split_conditions":[-7.7000507E-3,-2.3891482E0,-1.9488326E-1,2.3832858E-2,-1.2050949E0,1.0908813E0,-5.68522E-1,-8.035569E-2,-1.3584627E0,5.194171E-2,1.2769483E-2,7.0121276E-1,-6.7006187E-3,2.9479155E-2,-3.479382E-2,-5.845004E-4,-5.3024303E-2,-2.923406E-2,9.1811144E-1,-1.0382255E-1,-4.828474E-2,2.813981E-2,-4.7919463E-2,5.0813925E-2,3.665149E-3,-3.0340195E-2,4.0473536E-2],"split_indices":[5,6,7,0,17,6,1,16,7,0,0,6,7,0,0,0,0,9,10,1,0,0,0,0,0,0,0],"split_type":[0,0,0,0,0,0,0,0,0,0,0,0,0,0,0,0,0,0,0,0,0,0,0,0,0,0,0],"sum_hessian":[4.8434116E1,1.810026E1,3.0333857E1,1.9951329E0,1.6105127E1,1.2868252E1,1.7465605E1,2.7943864E0,1.331074E1,1.15329275E1,1.335324E0,8.888029E0,8.577575E0,1.3856516E0,1.4087348E0,2.0418298E0,1.1268911E1,3.497338E0,5.3906918E0,4.333873E0,4.243702E0,1.802529E0,1.694809E0,3.812068E0,1.5786235E0,1.9894496E0,2.3444233E0],"tree_param":{"num_deleted":"0","num_feature":"18","num_nodes":"27","size_leaf_vector":"1"}},{"base_weights":[9.923036E-2,-4.9935782E-1,4.5364735E-1,4.3434197E-1,-6.6219014E-1,9.903115E-1,5.7524852E-2,4.18811E-2,-1.1148121E-2,1.3089539E-1,-9.252771E-1,5.2447446E-2,1.3037813E-2,5.0663644E-1,-4.5320797E-1,-3.691062E-2,3.92614E-2,1.0741667E-2,-5.245891E-2,4.8371278E-2,-8.706736E-2,2.3109552E-1,-4.889493E-2,-4.3040205E-2,3.7170175E-1,-4.4335894E-2,4.3168813E-2,3.853234E-2,-5.991196E-3],"categories":[],"categories_nodes":[],"categories_segments":[],"categories_sizes":[],"default_left":[0,0,0,0,0,0,0,0,0,0,0,0,0,0,0,0,0,0,0,0,0,0,0,0,0,0,0,0,0],"id":36,"left_children":[1,3,5,7,9,11,13,-1,-1,15,17,-1,-1,19,21,-1,-1,-1,-1,-1,23,25,-1,-1,27,-1,-1,-1,-1],"loss_changes":[1.0989116E1,3.2283983E0,6.828326E0,1.1082277E0,3.6402926E0,3.1223965E-1,4.7473702E0,0E0,0E0,3.4671042E0,2.0319805E0,0E0,0E0,3.0804834E0,3.72438E0,0E0,0E0,0E0,0E0,0E0,2.3444595E0,4.325894E0,0E0,0E0,9.313866E-1,0E0,0E0,0E0,0E0],"parents":[2147483647,0,0,1,1,2,2,3,3,4,4,5,5,6,6,9,9,10,10,13,13,14,14,20,20,21,21,24,24],"right_children":[2,4,6,8,10,12,14,-1,-1,16,18,-1,-1,20,22,-1,-1,-1,-1,-1,24,26,-1,-1,28,-1,-1,-1,-1],"split_conditions":[9.7586936E-4,-1.3584627E0,-1.9488326E-1,2.8089654E-1,-9.503646E-1,1.0908813E0,-4.1687346E-1,4.18811E-2,-1.1148121E-2,-4.178018E-1,-2.6722505E0,5.2447446E-2,1.3037813E-2,-2.1385886E-2,1.05412165E-2,-3.691062E-2,3.92614E-2,1.0741667E-2,-5.245891E-2,4.8371278E-2,7.0121276E-1,-1.7318274E-1,-4.889493E-2,-4.3040205E-2,1.3261708E0,-4.4335894E-2,4.3168813E-2,3.853234E-2,-5.991196E-3],"split_indices":[5,7,7,17,17,6,0,0,0,5,6,0,0,9,7,0,0,0,0,0,6,0,0,0,5,0,0,0,0],"split_type":[0,0,0,0,0,0,0,0,0,0,0,0,0,0,0,0,0,0,0,0,0,0,0,0,0,0,0,0,0],"sum_hessian":[4.9731056E1,1.8342596E1,3.1388458E1,2.4762228E0,1.5866374E1,1.2692596E1,1.8695862E1,1.3646387E0,1.1115842E0,4.0773907E0,1.1788983E1,1.1343111E1,1.3494856E0,9.952328E0,8.743533E0,1.6962199E0,2.3811707E0,1.0836413E0,1.0705342E1,5.248981E0,4.7033467E0,4.037443E0,4.70609E0,1.4245088E0,3.2788382E0,1.3132781E0,2.724165E0,1.4964132E0,1.7824249E0],"tree_param":{"num_deleted":"0","num_feature":"18","num_nodes":"29","size_leaf_vector":"1"}},{"base_weights":[3.3295475E-2,-6.149909E-1,4.3132356E-1,2.478327E-1,-7.434376E-1,8.027419E-1,-1.2884492E-1,1.6749209E-2,2.4941673E-3,-3.6234185E-1,-5.23847E-2,4.6816427E-2,5.338743E-2,4.5064202E-1,-4.8169952E-2,-4.6150893E-2,5.349603E-1,5.4720753E-1,-3.8433246E-2,6.36096E-1,-1.5178322E-2,-8.316949E-3,4.5892265E-2,-1.35712465E-2,4.644834E-2,8.164199E-1,4.9771788E-3,4.768035E-2,9.912659E-3],"categories":[],"categories_nodes":[],"categories_segments":[],"categories_sizes":[],"default_left":[0,0,0,0,0,0,0,0,0,0,0,0,0,0,0,0,0,0,0,0,0,0,0,0,0,0,0,0,0],"id":37,"left_children":[1,3,5,7,9,11,13,-1,-1,15,-1,17,-1,19,-1,-1,21,23,-1,25,-1,-1,-1,-1,-1,27,-1,-1,-1],"loss_changes":[1.255827E1,2.2384448E0,6.367074E0,3.7662268E-2,1.520052E0,3.604123E0,6.6556206E0,0E0,0E0,4.922024E0,0E0,2.779491E0,0E0,1.35037E0,0E0,0E0,1.2315612E0,1.5542941E0,0E0,5.925169E-1,0E0,0E0,0E0,0E0,0E0,2.411902E-1,0E0,0E0,0E0],"parents":[2147483647,0,0,1,1,2,2,3,3,4,4,5,5,6,6,9,9,11,11,13,13,16,16,17,17,19,19,25,25],"right_children":[2,4,6,8,10,12,14,-1,-1,16,-1,18,-1,20,-1,-1,22,24,-1,26,-1,-1,-1,-1,-1,28,-1,-1,-1],"split_conditions":[-8.2450986E-2,-1.8279341E0,1.05412165E-2,1.09089404E-1,2.095291E-3,-2.1707018E-1,-5.185075E-1,1.6749209E-2,2.4941673E-3,-6.1147947E-2,-5.23847E-2,-4.0532413E-1,5.338743E-2,5.572244E-2,-4.8169952E-2,-4.6150893E-2,-1.9770178E-1,-4.8847923E-1,-3.8433246E-2,-2.0533018E-2,-1.5178322E-2,-8.316949E-3,4.5892265E-2,-1.35712465E-2,4.644834E-2,9.849974E-1,4.9771788E-3,4.768035E-2,9.912659E-3],"split_indices":[8,7,7,11,16,0,0,0,0,12,0,0,0,9,0,0,6,0,0,12,0,0,0,0,0,6,0,0,0],"split_type":[0,0,0,0,0,0,0,0,0,0,0,0,0,0,0,0,0,0,0,0,0,0,0,0,0,0,0,0,0],"sum_hessian":[4.664064E1,1.7535189E1,2.9105452E1,2.151735E0,1.5383454E1,1.7240889E1,1.1864564E1,1.0133252E0,1.1384099E0,7.8019924E0,7.581462E0,4.780703E0,1.2460185E1,7.273857E0,4.590707E0,4.7840424E0,3.0179503E0,3.166605E0,1.6140983E0,5.9639683E0,1.3098888E0,1.2655356E0,1.7524147E0,1.0989871E0,2.067618E0,4.0733867E0,1.8905818E0,2.8894958E0,1.1838907E0],"tree_param":{"num_deleted":"0","num_feature":"18","num_nodes":"29","size_leaf_vector":"1"}},{"base_weights":[8.2820565E-2,-7.410257E-1,3.8310626E-1,2.024217E-2,-9.356641E-1,8.8361514E-1,4.946959E-2,-1.00951595E-2,-5.1303353E-2,9.481322E-4,9.5617104E-1,4.6291792E-1,-3.7722787E-1,5.0745066E-2,1.1452004E-2,-3.8475618E-2,6.657308E-1,-5.2618843E-2,1.8233554E-1,8.91281E-1,-1.3602518E-2,5.0348986E-2,-4.155804E-2,5.2274253E-2,1.8483302E-2],"categories":[],"categories_nodes":[],"categories_segments":[],"categories_sizes":[],"default_left":[0,0,0,0,0,0,0,0,0,0,0,0,0,0,0,0,0,0,0,0,0,0,0,0,0],"id":38,"left_children":[1,3,5,-1,7,9,11,-1,-1,-1,13,15,17,-1,-1,-1,19,-1,21,23,-1,-1,-1,-1,-1],"loss_changes":[1.2156037E1,3.3139062E0,5.9394045E0,0E0,5.590811E-1,8.772068E-1,4.154247E0,0E0,0E0,0E0,3.289652E-1,3.4881923E0,4.5939245E0,0E0,0E0,0E0,2.5183115E0,0E0,6.87441E0,3.299842E-1,0E0,0E0,0E0,0E0,0E0],"parents":[2147483647,0,0,1,1,2,2,4,4,5,5,6,6,10,10,11,11,12,12,16,16,18,18,19,19],"right_children":[2,4,6,-1,8,10,12,-1,-1,-1,14,16,18,-1,-1,-1,20,-1,22,24,-1,-1,-1,-1,-1],"split_conditions":[-2.7276343E-1,-1.3584627E0,-2.3183009E-1,2.024217E-2,-1.6976823E0,-9.6541025E-2,-6.0315055E-1,-1.00951595E-2,-5.1303353E-2,9.481322E-4,1.0908813E0,-9.5057184E-1,3.1629154E-1,5.0745066E-2,1.1452004E-2,-3.8475618E-2,-1.0368068E-2,-5.2618843E-2,1.05412165E-2,-2.1385886E-2,-1.3602518E-2,5.0348986E-2,-4.155804E-2,5.2274253E-2,1.8483302E-2],"split_indices":[8,7,7,0,17,8,3,0,0,0,6,15,3,0,0,0,12,0,7,9,0,0,0,0,0],"split_type":[0,0,0,0,0,0,0,0,0,0,0,0,0,0,0,0,0,0,0,0,0,0,0,0,0],"sum_hessian":[4.6989742E1,1.2160145E1,3.4829597E1,1.6088132E0,1.05513315E1,1.3271607E1,2.1557991E1,1.5120503E0,9.039281E0,1.1250981E0,1.2146509E1,1.0905869E1,1.0652122E1,1.087257E1,1.2739384E0,1.1462524E0,9.759616E0,4.4283385E0,6.2237835E0,7.907364E0,1.8522524E0,3.4351554E0,2.788628E0,5.327949E0,2.5794144E0],"tree_param":{"num_deleted":"0","num_feature":"18","num_nodes":"25","size_leaf_vector":"1"}},{"base_weights":[5.8195658E-2,-6.074723E-1,4.6091262E-1,-1.6507572E-1,-9.428507E-1,9.204742E-1,2.782865E-2,-7.422827E-1,5.812903E-1,-5.2556194E-2,-5.7134847E-3,-2.6257234E-3,5.052588E-2,4.904939E-1,-5.35887E-1,-8.564243E-3,-4.2664737E-2,2.4609969E-3,4.4936143E-2,-2.529542E-1,7.999887E-1,2.8874934E-1,-4.7024686E-2,1.9159732E-2,-3.992637E-2,5.03768E-2,2.1497146E-3,-9.184025E-3,3.1821575E-2],"categories":[],"categories_nodes":[],"categories_segments":[],"categories_sizes":[],"default_left":[0,0,0,0,0,0,0,0,0,0,0,0,0,0,0,0,0,0,0,0,0,0,0,0,0,0,0,0,0],"id":39,"left_children":[1,3,5,7,9,11,13,15,17,-1,-1,-1,-1,19,21,-1,-1,-1,-1,23,25,27,-1,-1,-1,-1,-1,-1,-1],"loss_changes":[1.2722107E1,2.5040746E0,5.84304E0,4.2837906E0,7.755976E-1,1.3036966E0,4.4910555E0,2.0131111E-1,7.091156E-1,0E0,0E0,0E0,0E0,2.3712254E0,2.8692925E0,0E0,0E0,0E0,0E0,1.5312672E0,1.0400696E0,6.635046E-1,0E0,0E0,0E0,0E0,0E0,0E0,0E0],"parents":[2147483647,0,0,1,1,2,2,3,3,4,4,5,5,6,6,7,7,8,8,13,13,14,14,19,19,20,20,21,21],"right_children":[2,4,6,8,10,12,14,16,18,-1,-1,-1,-1,20,22,-1,-1,-1,-1,24,26,28,-1,-1,-1,-1,-1,-1,-1],"split_conditions":[-1.5680144E-2,2.095291E-3,-7.517544E-2,-6.1147947E-2,1.0686023E-1,-1.0967222E-1,-5.68522E-1,-9.062878E-1,-2.498526E-1,-5.2556194E-2,-5.7134847E-3,-2.6257234E-3,5.052588E-2,6.568212E-1,1.05412165E-2,-8.564243E-3,-4.2664737E-2,2.4609969E-3,4.4936143E-2,-2.923406E-2,9.1811144E-1,8.890579E-1,-4.7024686E-2,1.9159732E-2,-3.992637E-2,5.03768E-2,2.1497146E-3,-9.184025E-3,3.1821575E-2],"split_indices":[5,16,7,12,10,9,1,10,6,0,0,0,0,6,7,0,0,0,0,9,10,4,0,0,0,0,0,0,0],"split_type":[0,0,0,0,0,0,0,0,0,0,0,0,0,0,0,0,0,0,0,0,0,0,0,0,0,0,0,0,0],"sum_hessian":[4.5412674E1,1.69262E1,2.8486473E1,7.942061E0,8.98414E0,1.3274749E1,1.5211724E1,4.4816327E0,3.4604285E0,7.708293E0,1.2758479E0,1.1597334E0,1.2115015E1,8.426023E0,6.7857013E0,1.1434029E0,3.3382297E0,1.7246616E0,1.7357669E0,2.530385E0,5.8956375E0,2.3277721E0,4.457929E0,1.3056273E0,1.2247577E0,4.3672795E0,1.528358E0,1.1868213E0,1.1409507E0],"tree_param":{"num_deleted":"0","num_feature":"18","num_nodes":"29","size_leaf_vector":"1"}},{"base_weights":[5.1199175E-2,-5.4309726E-1,4.3520692E-1,2.4168874E-1,-6.7253375E-1,9.086737E-1,1.0849446E-1,2.5104148E-2,-7.5652273E-3,1.4743552E-2,-7.646039E-1,1.2210651E-2,5.0431907E-2,5.4804426E-1,-3.6047664E-1,-5.0145704E-2,-3.519944E-1,8.4402156E-1,-1.48716E-2,1.9985797E-1,-4.4956483E-2,4.862136E-1,-4.4050433E-2,4.7642276E-2,1.3519399E-2,-2.8674278E-2,4.0451147E-2,3.690169E-2,3.292115E-4],"categories":[],"categories_nodes":[],"categories_segments":[],"categories_sizes":[],"default_left":[0,0,0,0,0,0,0,0,0,0,0,0,0,0,0,0,0,0,0,0,0,0,0,0,0,0,0,0,0],"id":40,"left_children":[1,3,5,7,9,11,13,-1,-1,-1,15,-1,-1,17,19,-1,21,23,-1,25,-1,27,-1,-1,-1,-1,-1,-1,-1],"loss_changes":[1.0096798E1,1.9305024E0,4.047395E0,4.0341252E-1,1.5797386E0,4.715557E-1,3.7007453E0,0E0,0E0,0E0,1.0394964E0,0E0,0E0,2.5455585E0,2.8434086E0,0E0,3.4106436E0,1.8259764E-1,0E0,2.8871505E0,0E0,3.872761E-1,0E0,0E0,0E0,0E0,0E0,0E0,0E0],"parents":[2147483647,0,0,1,1,2,2,3,3,4,4,5,5,6,6,10,10,13,13,14,14,16,16,17,17,19,19,21,21],"right_children":[2,4,6,8,10,12,14,-1,-1,-1,16,-1,-1,18,20,-1,22,24,-1,26,-1,28,-1,-1,-1,-1,-1,-1,-1],"split_conditions":[-1.5680144E-2,-1.3584627E0,-1.9488326E-1,-1.183616E-1,-2.6722505E0,-2.6788718E-1,-5.3483135E-1,2.5104148E-2,-7.5652273E-3,1.4743552E-2,-4.2564552E-2,1.2210651E-2,5.0431907E-2,5.572244E-2,1.05412165E-2,-5.0145704E-2,3.2371316E-2,-1.0368068E-2,-1.48716E-2,-2.1707018E-1,-4.4956483E-2,-2.0533018E-2,-4.4050433E-2,4.7642276E-2,1.3519399E-2,-2.8674278E-2,4.0451147E-2,3.690169E-2,3.292115E-4],"split_indices":[5,7,7,12,6,0,1,0,0,0,12,0,0,9,7,0,12,12,0,0,0,12,0,0,0,0,0,0,0],"split_type":[0,0,0,0,0,0,0,0,0,0,0,0,0,0,0,0,0,0,0,0,0,0,0,0,0,0,0,0,0],"sum_hessian":[4.22069E1,1.64046E1,2.5802301E1,2.199795E0,1.4204804E1,9.807768E0,1.59945345E1,1.1561517E0,1.0436432E0,1.0430052E0,1.3161799E1,1.7328124E0,8.074956E0,8.169213E0,7.825321E0,7.4362154E0,5.7255836E0,6.0522223E0,2.1169908E0,4.1437483E0,3.681573E0,2.2466836E0,3.4789002E0,4.5314846E0,1.5207375E0,1.8516383E0,2.29211E0,1.1199284E0,1.1267554E0],"tree_param":{"num_deleted":"0","num_feature":"18","num_nodes":"29","size_leaf_vector":"1"}},{"base_weights":[7.1212225E-2,-4.8539704E-1,4.3180838E-1,2.1108387E-2,-6.313579E-1,9.1412747E-1,6.314973E-2,-4.873067E-2,-2.3182288E-1,1.5812999E-2,5.019935E-2,5.579586E-1,-4.1558367E-1,2.7177004E-2,-5.361544E-1,-1.0536651E-2,8.0015785E-1,2.100836E-1,-4.6193127E-2,1.6958913E-2,-4.6444323E-2,9.639218E-3,4.918081E-2,-2.5831277E-2,3.8172513E-2],"categories":[],"categories_nodes":[],"categories_segments":[],"categories_sizes":[],"default_left":[0,0,0,0,0,0,0,0,0,0,0,0,0,0,0,0,0,0,0,0,0,0,0,0,0],"id":41,"left_children":[1,3,5,-1,7,9,11,-1,13,-1,-1,15,17,-1,19,-1,21,23,-1,-1,-1,-1,-1,-1,-1],"loss_changes":[8.980204E0,2.6046638E0,4.751579E0,0E0,1.9142699E0,3.079977E-1,4.1177135E0,0E0,2.302748E0,0E0,0E0,1.7499111E0,3.0277858E0,0E0,2.5924025E0,0E0,5.5326366E-1,2.3282204E0,0E0,0E0,0E0,0E0,0E0,0E0,0E0],"parents":[2147483647,0,0,1,1,2,2,4,4,5,5,6,6,8,8,11,11,12,12,14,14,16,16,17,17],"right_children":[2,4,6,-1,8,10,12,-1,14,-1,-1,16,18,-1,20,-1,22,24,-1,-1,-1,-1,-1,-1,-1],"split_conditions":[-7.7000507E-3,-2.3891482E0,-1.9488326E-1,2.1108387E-2,-4.1615388E-1,-2.6788718E-1,-5.3483135E-1,-4.873067E-2,-2.3482203E-1,1.5812999E-2,5.019935E-2,-8.9058E-1,-6.7006187E-3,2.7177004E-2,-8.586132E-1,-1.0536651E-2,4.7972602E-1,-1.7318274E-1,-4.6193127E-2,1.6958913E-2,-4.6444323E-2,9.639218E-3,4.918081E-2,-2.5831277E-2,3.8172513E-2],"split_indices":[5,6,7,0,5,0,1,0,9,0,0,4,7,0,15,0,6,0,0,0,0,0,0,0,0],"split_type":[0,0,0,0,0,0,0,0,0,0,0,0,0,0,0,0,0,0,0,0,0,0,0,0,0],"sum_hessian":[4.2697643E1,1.6650366E1,2.604728E1,2.0446534E0,1.4605712E1,1.0643153E1,1.5404126E1,7.0819626E0,7.5237494E0,1.981176E0,8.661977E0,7.493505E0,7.9106207E0,1.8991535E0,5.624596E0,1.8264953E0,5.66701E0,3.8088198E0,4.1018004E0,1.784225E0,3.840371E0,1.790397E0,3.876613E0,1.675225E0,2.1335948E0],"tree_param":{"num_deleted":"0","num_feature":"18","num_nodes":"25","size_leaf_vector":"1"}},{"base_weights":[2.8596034E-2,-3.7602928E-1,4.67679E-1,-1.2339048E-1,-4.7401164E-2,4.8864096E-2,1.0803638E-1,5.075897E-1,-3.3606812E-1,4.4844615E-1,-3.5383648E-1,-9.74781E-3,8.1046313E-1,-6.90293E-1,4.2642134E-1,-1.6502067E-1,7.684771E-1,1.5866461E-1,-4.0834744E-2,1.488436E-2,4.9003787E-2,-5.0930765E-2,2.3315485E-1,-8.119098E-3,3.9324816E-2,-2.7308106E-2,1.105413E-2,9.171809E-3,4.532449E-2,-2.8519506E-2,3.5400476E-2,-1.08913435E-2,3.092478E-2],"categories":[],"categories_nodes":[],"categories_segments":[],"categories_sizes":[],"default_left":[0,0,0,0,0,0,0,0,0,0,0,0,0,0,0,0,0,0,0,0,0,0,0,0,0,0,0,0,0,0,0,0,0],"id":42,"left_children":[1,3,5,7,-1,-1,9,11,13,15,17,-1,19,21,23,25,27,29,-1,-1,-1,-1,31,-1,-1,-1,-1,-1,-1,-1,-1,-1,-1],"loss_changes":[7.652104E0,3.1278045E0,3.674789E0,2.4149373E0,0E0,0E0,2.2367198E0,1.1398741E0,3.8352942E0,1.707257E0,1.5924693E0,0E0,5.5429935E-3,3.0672693E0,1.1404374E0,6.480215E-1,2.7513933E-1,1.9112724E0,0E0,0E0,0E0,0E0,7.015587E-1,0E0,0E0,0E0,0E0,0E0,0E0,0E0,0E0,0E0,0E0],"parents":[2147483647,0,0,1,1,2,2,3,3,6,6,7,7,8,8,9,9,10,10,12,12,13,13,14,14,15,15,16,16,17,17,22,22],"right_children":[2,4,6,8,-1,-1,10,12,14,16,18,-1,20,22,24,26,28,30,-1,-1,-1,-1,32,-1,-1,-1,-1,-1,-1,-1,-1,-1,-1],"split_conditions":[2.3092145E-1,5.1295346E-1,-1.9488326E-1,-5.0464827E-1,-4.7401164E-2,4.8864096E-2,-5.3483135E-1,-6.463972E-1,-1.3494572E-1,-8.244595E-1,1.05412165E-2,-9.74781E-3,-1.7648825E-1,-4.934218E-2,-9.920348E-2,-1.19275816E-1,-9.965825E-1,3.104165E-1,-4.0834744E-2,1.488436E-2,4.9003787E-2,-5.0930765E-2,1.0091326E0,-8.119098E-3,3.9324816E-2,-2.7308106E-2,1.105413E-2,9.171809E-3,4.532449E-2,-2.8519506E-2,3.5400476E-2,-1.08913435E-2,3.092478E-2],"split_indices":[5,7,7,0,0,0,1,0,13,2,7,0,9,9,9,16,10,3,0,0,0,0,1,0,0,0,0,0,0,0,0,0,0],"split_type":[0,0,0,0,0,0,0,0,0,0,0,0,0,0,0,0,0,0,0,0,0,0,0,0,0,0,0,0,0,0,0,0,0],"sum_hessian":[4.108078E1,2.1454008E1,1.9626772E1,1.5724512E1,5.7294965E0,7.409856E0,1.2216916E1,3.6144276E0,1.2110085E1,7.0499954E0,5.1669207E0,1.1961491E0,2.4182787E0,8.333384E0,3.7767015E0,2.5830026E0,4.466993E0,2.763849E0,2.4030716E0,1.2858807E0,1.1323979E0,6.0716243E0,2.261759E0,1.6415051E0,2.1351964E0,1.0912383E0,1.4917643E0,1.2972075E0,3.1697853E0,1.1711997E0,1.5926492E0,1.2424176E0,1.0193415E0],"tree_param":{"num_deleted":"0","num_feature":"18","num_nodes":"33","size_leaf_vector":"1"}},{"base_weights":[3.8431425E-2,3.0522668E-1,